{"learner":{"attributes":{"scikit_learn":"{\"_estimator_type\": \"regressor\"}"},"feature_names":["lat","lon","year","month","day","hour","minute","dayofyear","weekday","sin_day","cos_day","sin_hour","cos_hour"],"feature_types":["float","float","int","int","int","int","int","int","int","float","float","float","float"],"gradient_booster":{"model":{"gbtree_model_param":{"num_parallel_tree":"1","num_trees":"50"},"iteration_indptr":[0,1,2,3,4,5,6,7,8,9,10,11,12,13,14,15,16,17,18,19,20,21,22,23,24,25,26,27,28,29,30,31,32,33,34,35,36,37,38,39,40,41,42,43,44,45,46,47,48,49,50],"tree_info":[0,0,0,0,0,0,0,0,0,0,0,0,0,0,0,0,0,0,0,0,0,0,0,0,0,0,0,0,0,0,0,0,0,0,0,0,0,0,0,0,0,0,0,0,0,0,0,0,0,0],"trees":[{"base_weights":[-4.584128E-7,-3.2504055E1,4.812903E0,-3.7191277E1,-2.1707882E1,1.1742997E1,-1.4885904E1,-4.3678143E1,-2.9727814E1,-1.5724436E1,-3.0862637E1,-2.1968527E0,1.55E1,-6.1619387E0,-1.9835495E1,-3.6689392E1,-5.008694E1,-2.3620705E1,-3.5042843E1,-2.240663E1,-1.2328022E1,-3.6874874E1,-2.3973318E1,-6.9625263E0,1.8175224E0,1.78903E1,4.9550853E0,5.1852435E-1,-1.0707966E1,-1.0670628E1,-2.4533232E1,-1.3884872E1,-9.979136E0,-1.5560082E1,-1.1367565E1,-9.818071E0,-6.1487923E0,-1.1724588E1,-9.086253E0,-8.150374E0,-5.615571E0,-4.8239765E0,-2.9563046E0,-1.259023E1,-8.685561E0,-8.48981E0,-5.2676682E0,-3.1034968E0,-1.4806364E0,-1.3355659E-1,1.2994522E0,3.393947E0,5.7709904E0,3.4069943E0,5.094563E-1,1.4635093E0,-1.1916478E0,-2.3179214E0,-5.1556635E0,-1.9770737E0,-4.750347E0,-4.3674064E0,-7.9327745E0],"categories":[],"categories_nodes":[],"categories_segments":[],"categories_sizes":[],"default_left":[0,0,0,0,0,0,0,0,0,0,0,0,0,0,0,0,0,0,0,0,0,0,0,0,0,0,0,0,0,0,0,0,0,0,0,0,0,0,0,0,0,0,0,0,0,0,0,0,0,0,0,0,0,0,0,0,0,0,0,0,0,0,0],"id":0,"left_children":[1,3,5,7,9,11,13,15,17,19,21,23,25,27,29,31,33,35,37,39,41,43,45,47,49,51,53,55,57,59,61,-1,-1,-1,-1,-1,-1,-1,-1,-1,-1,-1,-1,-1,-1,-1,-1,-1,-1,-1,-1,-1,-1,-1,-1,-1,-1,-1,-1,-1,-1,-1,-1],"loss_changes":[1.7964189E8,7.493808E6,1.3654438E8,4.99832E6,2.45555E6,3.8750856E7,1.1239824E7,2.472608E6,1.55794E6,6.151575E5,7.33124E5,3.005199E6,1.4690496E7,2.8616382E6,7.150076E6,8.67076E5,6.23552E5,6.35256E5,4.91944E5,1.59936E5,1.66723E5,3.80521E5,2.28738E5,4.9238925E5,4.8501378E5,4.207056E6,2.2455062E6,7.4708225E5,1.082783E6,1.185787E6,2.090828E6,0E0,0E0,0E0,0E0,0E0,0E0,0E0,0E0,0E0,0E0,0E0,0E0,0E0,0E0,0E0,0E0,0E0,0E0,0E0,0E0,0E0,0E0,0E0,0E0,0E0,0E0,0E0,0E0,0E0,0E0,0E0,0E0],"parents":[2147483647,0,0,1,1,2,2,3,3,4,4,5,5,6,6,7,7,8,8,9,9,10,10,11,11,12,12,13,13,14,14,15,15,16,16,17,17,18,18,19,19,20,20,21,21,22,22,23,23,24,24,25,25,26,26,27,27,28,28,29,29,30,30],"right_children":[2,4,6,8,10,12,14,16,18,20,22,24,26,28,30,32,34,36,38,40,42,44,46,48,50,52,54,56,58,60,62,-1,-1,-1,-1,-1,-1,-1,-1,-1,-1,-1,-1,-1,-1,-1,-1,-1,-1,-1,-1,-1,-1,-1,-1,-1,-1,-1,-1,-1,-1,-1,-1],"split_conditions":[-6.6777374E1,-7.379048E1,4.925481E1,4.4890594E-1,3.647617E1,-4.2108604E1,6.402547E1,-6.9929695E0,-1.2687774E1,-7.0214796E-1,4.373401E-1,-5.55165E1,3.238796E1,1.5951325E-1,-7.0214796E-1,-8.5788E1,1.5607848E2,-8.5788E1,8.6114675E-1,2.7E2,-7.097806E1,-6.956792E1,-6.956792E1,-6.255123E1,-4.842938E1,-2.9481499E1,-7.0214796E-1,2.025E3,6.6012764E1,2.8E2,-2.707419E-1,-1.3884872E1,-9.979136E0,-1.5560082E1,-1.1367565E1,-9.818071E0,-6.1487923E0,-1.1724588E1,-9.086253E0,-8.150374E0,-5.615571E0,-4.8239765E0,-2.9563046E0,-1.259023E1,-8.685561E0,-8.48981E0,-5.2676682E0,-3.1034968E0,-1.4806364E0,-1.3355659E-1,1.2994522E0,3.393947E0,5.7709904E0,3.4069943E0,5.094563E-1,1.4635093E0,-1.1916478E0,-2.3179214E0,-5.1556635E0,-1.9770737E0,-4.750347E0,-4.3674064E0,-7.9327745E0],"split_indices":[0,0,0,10,1,0,0,1,1,9,10,0,0,10,9,0,1,0,10,7,0,0,0,0,0,0,9,2,1,7,10,0,0,0,0,0,0,0,0,0,0,0,0,0,0,0,0,0,0,0,0,0,0,0,0,0,0,0,0,0,0,0,0],"split_type":[0,0,0,0,0,0,0,0,0,0,0,0,0,0,0,0,0,0,0,0,0,0,0,0,0,0,0,0,0,0,0,0,0,0,0,0,0,0,0,0,0,0,0,0,0,0,0,0,0,0,0,0,0,0,0,0,0,0,0,0,0,0,0],"sum_hessian":[1.148318E6,1.48102E5,1.000216E6,1.03266E5,4.4836E4,7.39913E5,2.60303E5,5.5245E4,4.8021E4,2.7116E4,1.772E4,1.57082E5,5.82831E5,9.4226E4,1.66077E5,2.643E4,2.8815E4,2.2348E4,2.5673E4,9.136E3,1.798E4,9.46E3,8.26E3,7.182E4,8.5262E4,4.75129E5,1.07702E5,3.8156E4,5.607E4,5.6281E4,1.09796E5,6.951E3,1.9479E4,2.5142E4,3.673E3,5.707E3,1.6641E4,1.3878E4,1.1795E4,3.985E3,5.151E3,7.142E3,1.0838E4,5.756E3,3.704E3,4.931E3,3.329E3,2.6911E4,4.4909E4,4.4874E4,4.0388E4,8.0734E4,3.94395E5,3.6317E4,7.1385E4,1.936E4,1.8796E4,3.8398E4,1.7672E4,3.144E4,2.4841E4,1.7641E4,9.2155E4],"tree_param":{"num_deleted":"0","num_feature":"13","num_nodes":"63","size_leaf_vector":"1"}},{"base_weights":[-1.4034205E-4,-2.3190823E1,3.3140013E0,-1.8423222E1,-2.795266E1,8.369751E0,-9.88363E0,-2.3137102E1,-1.149126E1,-3.2871197E1,-2.2773432E1,-1.2763798E0,1.1431493E1,-2.8854449E0,-1.3471625E1,-2.7621868E1,-1.8435514E1,-1.6236536E1,-7.91772E0,-3.5182034E1,-2.2649515E1,-2.440741E1,-1.1224133E1,-4.62385E0,2.2492676E0,1.30887E1,5.249935E0,8.1228733E-1,-7.2422667E0,-6.988994E0,-1.6792633E1,-1.0362703E1,-7.731295E0,-6.3771644E0,-4.3154426E0,-3.6585119E0,-5.7194076E0,-3.5155215E0,-1.9216685E0,-1.1044397E1,-8.10357E0,-7.2603416E0,-3.5300953E0,-7.92313E0,-4.69342E0,-6.8976912E0,-2.1835952E0,-2.3819447E0,-8.770822E-1,1.9772589E-1,1.2053902E0,2.7886398E0,4.26103E0,2.764914E0,6.4456224E-1,-1.2813599E0,9.443455E-1,-1.3573977E0,-3.6135495E0,-7.15623E-1,-2.9108198E0,-3.1506906E0,-5.5290995E0],"categories":[],"categories_nodes":[],"categories_segments":[],"categories_sizes":[],"default_left":[0,0,0,0,0,0,0,0,0,0,0,0,0,0,0,0,0,0,0,0,0,0,0,0,0,0,0,0,0,0,0,0,0,0,0,0,0,0,0,0,0,0,0,0,0,0,0,0,0,0,0,0,0,0,0,0,0,0,0,0,0,0,0],"id":1,"left_children":[1,3,5,7,9,11,13,15,17,19,21,23,25,27,29,31,33,35,37,39,41,43,45,47,49,51,53,55,57,59,61,-1,-1,-1,-1,-1,-1,-1,-1,-1,-1,-1,-1,-1,-1,-1,-1,-1,-1,-1,-1,-1,-1,-1,-1,-1,-1,-1,-1,-1,-1,-1,-1],"loss_changes":[8.825667E7,3.259232E6,6.703993E7,2.344332E6,1.829164E6,2.1454908E7,6.987622E6,9.00012E5,4.924E5,8.69436E5,6.6009E5,2.065667E6,5.648776E6,1.5195674E6,3.960482E6,2.79064E5,2.38041E5,1.42368E5,9.5156625E4,3.99792E5,1.1446975E5,5.3764E5,2.0129725E5,5.0616288E5,2.3975347E5,1.838592E6,1.434078E6,6.0576744E5,5.651405E5,7.7854825E5,1.252976E6,0E0,0E0,0E0,0E0,0E0,0E0,0E0,0E0,0E0,0E0,0E0,0E0,0E0,0E0,0E0,0E0,0E0,0E0,0E0,0E0,0E0,0E0,0E0,0E0,0E0,0E0,0E0,0E0,0E0,0E0,0E0,0E0],"parents":[2147483647,0,0,1,1,2,2,3,3,4,4,5,5,6,6,7,7,8,8,9,9,10,10,11,11,12,12,13,13,14,14,15,15,16,16,17,17,18,18,19,19,20,20,21,21,22,22,23,23,24,24,25,25,26,26,27,27,28,28,29,29,30,30],"right_children":[2,4,6,8,10,12,14,16,18,20,22,24,26,28,30,32,34,36,38,40,42,44,46,48,50,52,54,56,58,60,62,-1,-1,-1,-1,-1,-1,-1,-1,-1,-1,-1,-1,-1,-1,-1,-1,-1,-1,-1,-1,-1,-1,-1,-1,-1,-1,-1,-1,-1,-1,-1,-1],"split_conditions":[-6.7481125E1,7.286813E-2,4.6452435E1,-7.664457E1,4.0221357E-1,-4.0035534E1,6.122288E1,4.0221357E-1,2.2701082E-1,-7.1678635E1,1.5753288E2,-5.3390385E1,2.8184206E1,4.527447E-1,-7.0214796E-1,-8.721038E1,8.760579E-1,1.27E2,-5.5568194E-1,1.504452E2,1.5607848E2,-7.1678635E1,-8.435555E1,-7.0214796E-1,-4.6309395E1,-2.458113E1,2.4372971E-1,1.1E2,5.0523113E1,2.63E2,-1.3612033E-1,-1.0362703E1,-7.731295E0,-6.3771644E0,-4.3154426E0,-3.6585119E0,-5.7194076E0,-3.5155215E0,-1.9216685E0,-1.1044397E1,-8.10357E0,-7.2603416E0,-3.5300953E0,-7.92313E0,-4.69342E0,-6.8976912E0,-2.1835952E0,-2.3819447E0,-8.770822E-1,1.9772589E-1,1.2053902E0,2.7886398E0,4.26103E0,2.764914E0,6.4456224E-1,-1.2813599E0,9.443455E-1,-1.3573977E0,-3.6135495E0,-7.15623E-1,-2.9108198E0,-3.1506906E0,-5.5290995E0],"split_indices":[0,1,0,0,10,0,0,10,10,0,1,0,0,10,9,0,10,7,9,1,1,0,0,9,0,0,10,7,1,7,10,0,0,0,0,0,0,0,0,0,0,0,0,0,0,0,0,0,0,0,0,0,0,0,0,0,0,0,0,0,0,0,0],"split_type":[0,0,0,0,0,0,0,0,0,0,0,0,0,0,0,0,0,0,0,0,0,0,0,0,0,0,0,0,0,0,0,0,0,0,0,0,0,0,0,0,0,0,0,0,0,0,0,0,0,0,0,0,0,0,0,0,0,0,0,0,0,0,0],"sum_hessian":[1.148318E6,1.43584E5,1.004734E6,7.1751E4,7.1833E4,7.26447E5,2.78287E5,4.2707E4,2.9044E4,3.6841E4,3.4992E4,1.75025E5,5.51422E5,9.4321E4,1.83966E5,2.1855E4,2.0852E4,1.2475E4,1.6569E4,3.0046E4,6.795E3,3.0654E4,4.338E3,8.9781E4,8.5244E4,4.34844E5,1.16578E5,5.102E4,4.3301E4,6.232E4,1.21646E5,4.608E3,1.7247E4,1.2288E4,8.564E3,5.138E3,7.337E3,4.714E3,1.1855E4,2.5039E4,5.007E3,5.946E3,8.49E2,2.4949E4,5.705E3,1.088E3,3.25E3,3.043E4,5.9351E4,4.4888E4,4.0356E4,9.8767E4,3.36077E5,5.1154E4,6.5424E4,1.6061E4,3.4959E4,2.7655E4,1.5646E4,2.3113E4,3.9207E4,2.513E4,9.6516E4],"tree_param":{"num_deleted":"0","num_feature":"13","num_nodes":"63","size_leaf_vector":"1"}},{"base_weights":[-1.8903484E-4,-1.5500594E1,2.4556067E0,-1.8049948E1,-9.125273E0,6.303616E0,-6.573841E0,-2.0469233E1,-1.2263571E1,-6.1636415E0,-1.3979199E1,4.539327E-2,8.483193E0,-3.3328815E0,-1.1558169E1,-1.6492424E1,-2.3757418E1,-9.083516E0,-1.4666825E1,-9.736365E0,-4.315573E0,-1.6347301E1,-7.9040966E0,-2.0939524E0,2.4093728E0,9.516892E0,4.764238E0,2.623919E-1,-6.448865E0,-7.5583057E0,-1.3922095E1,-6.570503E0,-4.318535E0,-7.3975663E0,-4.726258E0,-4.5070195E0,-2.0368037E0,-4.660628E0,-1.8892068E0,-3.4809973E0,-1.9202375E0,-2.3434927E0,-1.068272E0,-5.5069857E0,-2.3779387E0,-2.842905E0,-9.1748846E-1,-1.2738088E0,-2.3094246E-1,1.9621202E-1,1.0901796E0,2.2661288E0,3.0946004E0,2.5994878E0,7.908668E-1,-8.5344523E-1,8.0158895E-1,-1.254276E0,-3.709912E0,-1.8984014E0,-3.6598232E0,-1.6046393E0,-4.468815E0],"categories":[],"categories_nodes":[],"categories_segments":[],"categories_sizes":[],"default_left":[0,0,0,0,0,0,0,0,0,0,0,0,0,0,0,0,0,0,0,0,0,0,0,0,0,0,0,0,0,0,0,0,0,0,0,0,0,0,0,0,0,0,0,0,0,0,0,0,0,0,0,0,0,0,0,0,0,0,0,0,0,0,0],"id":2,"left_children":[1,3,5,7,9,11,13,15,17,19,21,23,25,27,29,31,33,35,37,39,41,43,45,47,49,51,53,55,57,59,61,-1,-1,-1,-1,-1,-1,-1,-1,-1,-1,-1,-1,-1,-1,-1,-1,-1,-1,-1,-1,-1,-1,-1,-1,-1,-1,-1,-1,-1,-1,-1,-1],"loss_changes":[4.371175E7,2.55238E6,3.4442076E7,1.570252E6,6.44858E5,9.480828E6,4.784924E6,1.03409E6,2.52673E5,1.8394062E5,2.4444075E5,9.080203E5,1.981756E6,2.010873E6,1.103461E6,4.05934E5,3.11904E5,1.939615E5,1.36856E5,5.9079562E4,4.8431062E4,2.0680475E5,3.6312844E4,2.6857722E5,1.8333784E5,6.32216E5,9.3072025E5,6.2397756E5,1.2904448E6,2.474895E5,6.12451E5,0E0,0E0,0E0,0E0,0E0,0E0,0E0,0E0,0E0,0E0,0E0,0E0,0E0,0E0,0E0,0E0,0E0,0E0,0E0,0E0,0E0,0E0,0E0,0E0,0E0,0E0,0E0,0E0,0E0,0E0,0E0,0E0],"parents":[2147483647,0,0,1,1,2,2,3,3,4,4,5,5,6,6,7,7,8,8,9,9,10,10,11,11,12,12,13,13,14,14,15,15,16,16,17,17,18,18,19,19,20,20,21,21,22,22,23,23,24,24,25,25,26,26,27,27,28,28,29,29,30,30],"right_children":[2,4,6,8,10,12,14,16,18,20,22,24,26,28,30,32,34,36,38,40,42,44,46,48,50,52,54,56,58,60,62,-1,-1,-1,-1,-1,-1,-1,-1,-1,-1,-1,-1,-1,-1,-1,-1,-1,-1,-1,-1,-1,-1,-1,-1,-1,-1,-1,-1,-1,-1,-1,-1],"split_conditions":[-6.540345E1,-7.238939E1,4.36279E1,7.501537E-1,4.2080414E1,-3.7231323E1,7.172365E1,-1.696916E1,-2.395526E1,-6.8979603E-1,7.72456E-1,-5.0565357E1,2.6068062E1,2.9343396E-1,-5.839515E-1,-8.507051E1,1.6030273E2,-8.507051E1,1.6030273E2,2.89E2,-2.2072364E-1,1.5323291E2,1.4629666E2,-5.9761757E1,-4.517858E-1,-1.8962404E1,-6.515304E-1,1.29E2,8.010366E1,3.08E2,-4.4698343E-1,-6.570503E0,-4.318535E0,-7.3975663E0,-4.726258E0,-4.5070195E0,-2.0368037E0,-4.660628E0,-1.8892068E0,-3.4809973E0,-1.9202375E0,-2.3434927E0,-1.068272E0,-5.5069857E0,-2.3779387E0,-2.842905E0,-9.1748846E-1,-1.2738088E0,-2.3094246E-1,1.9621202E-1,1.0901796E0,2.2661288E0,3.0946004E0,2.5994878E0,7.908668E-1,-8.5344523E-1,8.0158895E-1,-1.254276E0,-3.709912E0,-1.8984014E0,-3.6598232E0,-1.6046393E0,-4.468815E0],"split_indices":[0,0,0,10,1,0,0,1,1,9,10,0,0,10,9,0,1,0,1,7,10,1,1,0,9,0,9,7,1,7,10,0,0,0,0,0,0,0,0,0,0,0,0,0,0,0,0,0,0,0,0,0,0,0,0,0,0,0,0,0,0,0,0],"split_type":[0,0,0,0,0,0,0,0,0,0,0,0,0,0,0,0,0,0,0,0,0,0,0,0,0,0,0,0,0,0,0,0,0,0,0,0,0,0,0,0,0,0,0,0,0,0,0,0,0,0,0,0,0,0,0,0,0,0,0,0,0,0,0],"sum_hessian":[1.148318E6,1.5705E5,9.91268E5,1.12187E5,4.4863E4,6.9506E5,2.96208E5,7.9109E4,3.3078E4,2.7864E4,1.6999E4,1.79542E5,5.15518E5,1.79496E5,1.16712E5,3.5808E4,4.3301E4,1.424E4,1.8838E4,9.498E3,1.8366E4,1.223E4,4.769E3,9.4249E4,8.5293E4,4.03392E5,1.12126E5,8.3339E4,9.6157E4,4.3356E4,7.3356E4,1.0002E4,2.5806E4,3.8917E4,4.384E3,3.966E3,1.0274E4,1.7066E4,1.772E3,6.088E3,3.41E3,3.259E3,1.5107E4,9.873E3,2.357E3,3.6E3,1.169E3,3.59E4,5.8349E4,3.5051E4,5.0242E4,1.16634E5,2.86758E5,3.9577E4,7.2549E4,3.64E4,4.6939E4,6.9516E4,2.6641E4,3.4273E4,9.083E3,7.484E3,6.5872E4],"tree_param":{"num_deleted":"0","num_feature":"13","num_nodes":"63","size_leaf_vector":"1"}},{"base_weights":[-1.887594E-4,-1.1878057E1,1.5772527E0,-1.52715E1,-9.513246E0,3.7416975E0,-6.234399E0,-1.2634546E1,-1.8164667E1,-6.993894E0,-1.1779506E1,-1.3818227E0,5.0058174E0,-3.032078E0,-8.132629E0,-1.5416351E1,-9.4602585E0,-1.920605E1,-1.3941559E1,-1.0234962E1,-4.1252937E0,-1.3369601E1,-8.358639E0,-3.8142514E0,-1.1015918E-1,6.0335064E0,4.2518976E-1,-8.27891E-1,-6.523998E0,-1.1561215E1,-5.8291373E0,-5.3033404E0,-3.8452327E0,-2.1369264E0,-3.3836386E0,-5.188152E0,-6.199311E0,-6.6570673E0,-3.3764384E0,-4.1683555E0,-2.6385732E0,-1.5788692E0,-5.2142173E-1,-4.2566576E0,-1.8766171E0,-2.7698374E0,-9.7925633E-1,-2.130934E0,-6.415107E-1,5.531917E-1,-3.6628532E-1,8.740927E-1,1.9600085E0,1.239243E0,-3.6222178E-1,5.2195406E-1,-8.448734E-1,-9.1101885E-1,-2.3295648E0,-2.3536382E0,-3.8812428E0,-3.6272395E-1,-3.0728335E0],"categories":[],"categories_nodes":[],"categories_segments":[],"categories_sizes":[],"default_left":[0,0,0,0,0,0,0,0,0,0,0,0,0,0,0,0,0,0,0,0,0,0,0,0,0,0,0,0,0,0,0,0,0,0,0,0,0,0,0,0,0,0,0,0,0,0,0,0,0,0,0,0,0,0,0,0,0,0,0,0,0,0,0],"id":3,"left_children":[1,3,5,7,9,11,13,15,17,19,21,23,25,27,29,31,33,35,37,39,41,43,45,47,49,51,53,55,57,59,61,-1,-1,-1,-1,-1,-1,-1,-1,-1,-1,-1,-1,-1,-1,-1,-1,-1,-1,-1,-1,-1,-1,-1,-1,-1,-1,-1,-1,-1,-1,-1,-1],"loss_changes":[2.151566E7,1.080194E6,1.7139482E7,4.21556E5,4.52904E5,5.140998E6,1.336903E6,2.55287E5,1.15659E5,3.492955E5,2.27075E5,4.8590588E5,2.997126E6,6.300043E5,1.090474E6,9.0372E4,5.7353125E4,5.8603E4,1.1539281E5,9.28235E4,5.4125844E4,1.660835E5,5.9003125E4,2.972332E5,2.2392045E5,8.10924E5,7.058207E5,2.5620245E5,1.37076E5,2.8366E5,1.6842048E6,0E0,0E0,0E0,0E0,0E0,0E0,0E0,0E0,0E0,0E0,0E0,0E0,0E0,0E0,0E0,0E0,0E0,0E0,0E0,0E0,0E0,0E0,0E0,0E0,0E0,0E0,0E0,0E0,0E0,0E0,0E0,0E0],"parents":[2147483647,0,0,1,1,2,2,3,3,4,4,5,5,6,6,7,7,8,8,9,9,10,10,11,11,12,12,13,13,14,14,15,15,16,16,17,17,18,18,19,19,20,20,21,21,22,22,23,23,24,24,25,25,26,26,27,27,28,28,29,29,30,30],"right_children":[2,4,6,8,10,12,14,16,18,20,22,24,26,28,30,32,34,36,38,40,42,44,46,48,50,52,54,56,58,60,62,-1,-1,-1,-1,-1,-1,-1,-1,-1,-1,-1,-1,-1,-1,-1,-1,-1,-1,-1,-1,-1,-1,-1,-1,-1,-1,-1,-1,-1,-1,-1,-1],"split_conditions":[-6.887065E1,1.7647098E-1,5.5566143E1,9.932056E0,-9.824572E0,-4.4193733E1,-5.839515E-1,-7.874841E1,1.4629666E2,-8.0151115E1,8.9212644E-1,-6.0439728E1,3.7301273E1,7.667161E1,-3.522743E1,7.5792164E-1,1.3E2,-3.5243872E-1,-8.507051E1,-8.721038E1,8.862235E-1,1.6030273E2,1.5187349E2,-7.0214796E-1,-4.929348E1,-3.299054E1,-6.33914E-2,2.73E2,2.54E2,1.8276557E-2,7.02268E1,-5.3033404E0,-3.8452327E0,-2.1369264E0,-3.3836386E0,-5.188152E0,-6.199311E0,-6.6570673E0,-3.3764384E0,-4.1683555E0,-2.6385732E0,-1.5788692E0,-5.2142173E-1,-4.2566576E0,-1.8766171E0,-2.7698374E0,-9.7925633E-1,-2.130934E0,-6.415107E-1,5.531917E-1,-3.6628532E-1,8.740927E-1,1.9600085E0,1.239243E0,-3.6222178E-1,5.2195406E-1,-8.448734E-1,-9.1101885E-1,-2.3295648E0,-2.3536382E0,-3.8812428E0,-3.6272395E-1,-3.0728335E0],"split_indices":[0,10,0,1,1,0,9,0,1,0,10,0,0,0,1,9,7,10,0,0,10,1,1,9,1,0,10,7,7,10,1,0,0,0,0,0,0,0,0,0,0,0,0,0,0,0,0,0,0,0,0,0,0,0,0,0,0,0,0,0,0,0,0],"split_type":[0,0,0,0,0,0,0,0,0,0,0,0,0,0,0,0,0,0,0,0,0,0,0,0,0,0,0,0,0,0,0,0,0,0,0,0,0,0,0,0,0,0,0,0,0,0,0,0,0,0,0,0,0,0,0,0,0,0,0,0,0,0,0],"sum_hessian":[1.148318E6,1.34623E5,1.013695E6,5.5285E4,7.9338E4,7.93761E5,2.19934E5,2.8926E4,2.6359E4,3.7573E4,4.1765E4,1.57086E5,6.36675E5,8.1852E4,1.38082E5,1.5414E4,1.3512E4,2.1142E4,5.217E3,1.764E4,1.9933E4,2.851E4,1.3255E4,5.3929E4,1.03157E5,5.20008E5,1.16667E5,5.0179E4,3.1673E4,5.5488E4,8.2594E4,8.239E3,7.175E3,5.915E3,7.597E3,9.153E3,1.1989E4,1.28E3,3.937E3,4.978E3,1.2662E4,1.3499E4,6.434E3,2.5565E4,2.945E3,1.1313E4,1.942E3,1.8203E4,3.5726E4,3.7386E4,6.5771E4,7.181E4,4.48198E5,3.568E4,8.0987E4,2.1899E4,2.828E4,8.315E3,2.3358E4,1.4999E4,4.0489E4,4.0354E4,4.224E4],"tree_param":{"num_deleted":"0","num_feature":"13","num_nodes":"63","size_leaf_vector":"1"}},{"base_weights":[-1.9050184E-4,-7.5274053E0,1.232188E0,-9.508145E0,-4.755639E0,2.7672665E0,-4.732712E0,-1.1989999E1,-7.832612E0,-3.3998415E0,-8.390233E0,-5.004965E-1,3.3906584E0,-7.7109613E0,-3.45788E0,-1.0392567E1,-1.3907332E1,-8.8835125E0,-5.3035502E0,-5.318628E0,-1.9946535E0,-1.0090371E1,-9.48226E-1,1.1205853E0,-1.3473741E0,4.2681246E0,3.6166412E-1,-6.4088435E0,-1.1876842E1,-1.8690159E0,-6.0795155E0,-2.560052E0,-3.6211565E0,-4.540277E0,-3.3853233E0,-2.2271914E0,-3.198229E0,-1.392225E-1,-1.7656668E0,-8.796139E-1,-2.1404622E0,-1.8963775E-1,-8.8086796E-1,-4.173159E0,-2.318131E0,1.1074393E0,-1.0819172E0,6.53082E-1,1.5726721E-1,-6.5971285E-1,3.8070187E-1,6.4191926E-1,1.4082923E0,8.8986164E-1,-3.5589814E-1,-3.033345E0,-5.7756025E-1,-4.211368E0,-3.2505546E0,-1.3681537E0,3.6304936E-2,-4.09417E-1,-2.1511426E0],"categories":[],"categories_nodes":[],"categories_segments":[],"categories_sizes":[],"default_left":[0,0,0,0,0,0,0,0,0,0,0,0,0,0,0,0,0,0,0,0,0,0,0,0,0,0,0,0,0,0,0,0,0,0,0,0,0,0,0,0,0,0,0,0,0,0,0,0,0,0,0,0,0,0,0,0,0,0,0,0,0,0,0],"id":4,"left_children":[1,3,5,7,9,11,13,15,17,19,21,23,25,27,29,31,33,35,37,39,41,43,45,47,49,51,53,55,57,59,61,-1,-1,-1,-1,-1,-1,-1,-1,-1,-1,-1,-1,-1,-1,-1,-1,-1,-1,-1,-1,-1,-1,-1,-1,-1,-1,-1,-1,-1,-1,-1,-1],"loss_changes":[1.0652249E7,8.86921E5,9.035407E6,3.91722E5,3.3178325E5,1.5987075E6,7.668025E5,1.161565E5,1.4945625E5,1.3222188E5,2.314415E5,1.726123E5,1.751691E6,3.283105E5,5.891126E5,6.452525E4,5.535775E4,1.0299725E5,4.6513438E4,8.984431E4,3.632017E4,1.3432938E5,4.1982715E4,2.7178871E4,1.8403055E5,4.63535E5,5.9687225E5,7.656305E5,3.229725E4,4.7168047E5,2.7450662E5,0E0,0E0,0E0,0E0,0E0,0E0,0E0,0E0,0E0,0E0,0E0,0E0,0E0,0E0,0E0,0E0,0E0,0E0,0E0,0E0,0E0,0E0,0E0,0E0,0E0,0E0,0E0,0E0,0E0,0E0,0E0,0E0],"parents":[2147483647,0,0,1,1,2,2,3,3,4,4,5,5,6,6,7,7,8,8,9,9,10,10,11,11,12,12,13,13,14,14,15,15,16,16,17,17,18,18,19,19,20,20,21,21,22,22,23,23,24,24,25,25,26,26,27,27,28,28,29,29,30,30],"right_children":[2,4,6,8,10,12,14,16,18,20,22,24,26,28,30,32,34,36,38,40,42,44,46,48,50,52,54,56,58,60,62,-1,-1,-1,-1,-1,-1,-1,-1,-1,-1,-1,-1,-1,-1,-1,-1,-1,-1,-1,-1,-1,-1,-1,-1,-1,-1,-1,-1,-1,-1,-1,-1],"split_conditions":[-6.4683365E1,-7.522317E1,5.8403748E1,1.5951325E-1,8.1510796E1,-4.4884686E1,8.7E1,1.6794748E1,9.016342E-1,2.1022475E-1,1.6172482E2,-5.640582E1,3.5190323E1,9.422697E1,7.8055466E1,1.34E2,1.2808598E2,1.6794748E1,-1.3906837E2,-6.624376E1,-7.326611E1,1.0410075E-1,1.01E2,1.03E2,1.2245802E2,-3.1569323E1,-5.839515E-1,-2.9542337E1,3.3E1,-2.674676E1,-4.5848712E-1,-2.560052E0,-3.6211565E0,-4.540277E0,-3.3853233E0,-2.2271914E0,-3.198229E0,-1.392225E-1,-1.7656668E0,-8.796139E-1,-2.1404622E0,-1.8963775E-1,-8.8086796E-1,-4.173159E0,-2.318131E0,1.1074393E0,-1.0819172E0,6.53082E-1,1.5726721E-1,-6.5971285E-1,3.8070187E-1,6.4191926E-1,1.4082923E0,8.8986164E-1,-3.5589814E-1,-3.033345E0,-5.7756025E-1,-4.211368E0,-3.2505546E0,-1.3681537E0,3.6304936E-2,-4.09417E-1,-2.1511426E0],"split_indices":[0,0,0,10,1,0,7,1,10,10,1,1,0,1,0,7,1,1,1,1,1,10,7,7,1,0,9,1,7,1,10,0,0,0,0,0,0,0,0,0,0,0,0,0,0,0,0,0,0,0,0,0,0,0,0,0,0,0,0,0,0,0,0],"split_type":[0,0,0,0,0,0,0,0,0,0,0,0,0,0,0,0,0,0,0,0,0,0,0,0,0,0,0,0,0,0,0,0,0,0,0,0,0,0,0,0,0,0,0,0,0,0,0,0,0,0,0,0,0,0,0,0,0,0,0,0,0,0,0],"sum_hessian":[1.148318E6,1.61555E5,9.86763E5,9.4221E4,6.7334E4,7.84795E5,2.01968E5,3.7971E4,5.625E4,4.9042E4,1.8292E4,1.2573E5,6.59065E5,6.0537E4,1.41431E5,2.0717E4,1.7254E4,3.9736E4,1.6514E4,2.0731E4,2.8311E4,1.489E4,3.402E3,4.3144E4,8.2586E4,5.11026E5,1.48039E5,4.6123E4,1.4414E4,8.8062E4,5.3369E4,9.831E3,1.0886E4,1.1752E4,5.502E3,2.1821E4,1.7915E4,1.773E3,1.4741E4,8.96E3,1.1771E4,1.157E4,1.6741E4,5.689E3,9.201E3,1.239E3,2.163E3,1.5567E4,2.7577E4,6.2305E4,2.0281E4,8.5256E4,4.2577E5,5.5186E4,9.2853E4,2.5262E4,2.0861E4,4.684E3,9.73E3,3.7433E4,5.0629E4,1.0029E4,4.334E4],"tree_param":{"num_deleted":"0","num_feature":"13","num_nodes":"63","size_leaf_vector":"1"}},{"base_weights":[-1.7175997E-4,-6.1470356E0,7.5498635E-1,-7.0633035E0,-3.6108334E0,1.7448484E0,-3.3827438E0,-5.6716075E0,-8.577743E0,-2.1971645E0,-4.7778063E0,-9.249398E-1,2.3290002E0,-1.7121979E0,-4.9247384E0,-9.407161E0,-4.8672338E0,-9.477361E0,-5.7138515E0,-4.560681E0,-8.8555175E-1,-5.399834E0,-1.4084883E0,-2.226678E0,-1.09042205E-1,3.210788E0,6.531099E-1,-3.71129E-1,-4.0459023E0,-3.7150896E0,-8.537849E0,-3.1842165E0,-2.2647858E0,-1.9046024E0,-1.1457012E0,-2.2127006E0,-2.9962964E0,-3.3998663E0,-1.333968E0,-1.9591304E0,-1.0148209E0,3.352366E-1,-4.7537193E-1,-1.386465E0,-2.0822737E0,-2.3794613E0,2.6805663E-1,-3.3210218E-2,-9.7091E-1,-2.2919613E-1,2.0470148E-1,6.3319474E-1,1.274625E0,5.5649257E-1,-6.2838215E-1,-7.386875E-1,3.6023977E-1,-2.3347993E0,-6.849752E-1,-1.9465548E0,4.890962E-2,-3.098397E0,-2.1188364E0],"categories":[],"categories_nodes":[],"categories_segments":[],"categories_sizes":[],"default_left":[0,0,0,0,0,0,0,0,0,0,0,0,0,0,0,0,0,0,0,0,0,0,0,0,0,0,0,0,0,0,0,0,0,0,0,0,0,0,0,0,0,0,0,0,0,0,0,0,0,0,0,0,0,0,0,0,0,0,0,0,0,0,0],"id":5,"left_children":[1,3,5,7,9,11,13,15,17,19,21,23,25,27,29,31,33,35,37,39,41,43,45,47,49,51,53,55,57,59,61,-1,-1,-1,-1,-1,-1,-1,-1,-1,-1,-1,-1,-1,-1,-1,-1,-1,-1,-1,-1,-1,-1,-1,-1,-1,-1,-1,-1,-1,-1,-1,-1],"loss_changes":[5.3303335E6,2.919395E5,4.1886845E6,1.94474E5,5.5000844E4,1.2870412E6,5.0855325E5,1.4448125E5,1.1381275E5,4.6747336E4,3.827447E4,1.5734978E5,1.00061175E6,2.9657738E5,4.48662E5,1.9026062E4,6.1437625E4,3.599375E4,7.519675E4,1.2465555E4,1.3583175E4,1.8461406E4,4.2773016E4,1.2195194E5,4.7204098E4,5.06614E5,7.7091606E5,1.978307E5,2.2776694E5,8.272636E5,6.7919125E4,0E0,0E0,0E0,0E0,0E0,0E0,0E0,0E0,0E0,0E0,0E0,0E0,0E0,0E0,0E0,0E0,0E0,0E0,0E0,0E0,0E0,0E0,0E0,0E0,0E0,0E0,0E0,0E0,0E0,0E0,0E0,0E0],"parents":[2147483647,0,0,1,1,2,2,3,3,4,4,5,5,6,6,7,7,8,8,9,9,10,10,11,11,12,12,13,13,14,14,15,15,16,16,17,17,18,18,19,19,20,20,21,21,22,22,23,23,24,24,25,25,26,26,27,27,28,28,29,29,30,30],"right_children":[2,4,6,8,10,12,14,16,18,20,22,24,26,28,30,32,34,36,38,40,42,44,46,48,50,52,54,56,58,60,62,-1,-1,-1,-1,-1,-1,-1,-1,-1,-1,-1,-1,-1,-1,-1,-1,-1,-1,-1,-1,-1,-1,-1,-1,-1,-1,-1,-1,-1,-1,-1,-1],"split_conditions":[-7.028315E1,7.93844E-1,5.910804E1,8.3610115E0,-1.696916E1,-4.7012897E1,3.2614416E-1,-8.6491646E1,1.393376E2,-8.296572E1,1.4907532E2,-5.4129845E-1,2.2501179E1,7.875065E1,8.995677E1,-8.79061E1,-6.33914E-2,3.3722446E1,-8.6491646E1,9.0713906E-1,-1.3626176E2,1.6E1,-8.507051E1,-6.3425785E1,-5.7637726E1,-1.3275973E1,7.02268E1,-2.538348E1,1.14E2,-2.2550741E1,7.314863E1,-3.1842165E0,-2.2647858E0,-1.9046024E0,-1.1457012E0,-2.2127006E0,-2.9962964E0,-3.3998663E0,-1.333968E0,-1.9591304E0,-1.0148209E0,3.352366E-1,-4.7537193E-1,-1.386465E0,-2.0822737E0,-2.3794613E0,2.6805663E-1,-3.3210218E-2,-9.7091E-1,-2.2919613E-1,2.0470148E-1,6.3319474E-1,1.274625E0,5.5649257E-1,-6.2838215E-1,-7.386875E-1,3.6023977E-1,-2.3347993E0,-6.849752E-1,-1.9465548E0,4.890962E-2,-3.098397E0,-2.1188364E0],"split_indices":[0,10,0,1,1,0,10,0,1,0,1,9,0,0,1,0,10,1,0,10,1,5,0,1,0,0,1,1,7,1,0,0,0,0,0,0,0,0,0,0,0,0,0,0,0,0,0,0,0,0,0,0,0,0,0,0,0,0,0,0,0,0,0],"split_type":[0,0,0,0,0,0,0,0,0,0,0,0,0,0,0,0,0,0,0,0,0,0,0,0,0,0,0,0,0,0,0,0,0,0,0,0,0,0,0,0,0,0,0,0,0,0,0,0,0,0,0,0,0,0,0,0,0,0,0,0,0,0,0],"sum_hessian":[1.148318E6,1.25638E5,1.02268E6,9.2293E4,3.3345E4,8.25256E5,1.97424E5,4.8098E4,4.4195E4,1.508E4,1.8265E4,1.48151E5,6.77105E5,9.4763E4,1.02661E5,8.52E3,3.9578E4,3.3629E4,1.0566E4,5.381E3,9.699E3,1.5418E4,2.847E3,5.708E4,9.1071E4,4.43665E5,2.3344E5,6.0181E4,3.4582E4,7.6913E4,2.5748E4,5.162E3,3.358E3,1.6398E4,2.318E4,6.573E3,2.7056E4,1.943E3,8.623E3,2.012E3,3.369E3,2.509E3,7.19E3,1.0247E4,5.171E3,7.42E2,2.105E3,1.8439E4,3.8641E4,4.9831E4,4.124E4,2.15383E5,2.28282E5,1.62404E5,7.1036E4,2.5825E4,3.4356E4,1.1083E4,2.3499E4,4.4843E4,3.207E4,1.1629E4,1.4119E4],"tree_param":{"num_deleted":"0","num_feature":"13","num_nodes":"63","size_leaf_vector":"1"}},{"base_weights":[-1.5241248E-4,-3.709237E0,6.2701696E-1,-4.8345413E0,-2.3870256E0,1.6895608E0,-1.6804599E0,-6.0754957E0,-3.7998781E0,-1.5642272E0,-4.629434E0,8.756799E-2,2.2926667E0,-3.6376195E0,-7.49214E-1,-4.7638383E0,-6.9936323E0,-3.3693683E0,-5.4448423E0,-3.0332468E0,-5.866735E-1,-6.5449033E0,-1.4869648E0,1.2057687E0,-6.1973506E-1,1.924788E0,4.0163817E0,-2.5886998E0,-5.6351814E0,5.752314E-1,-2.2816339E0,2.2868283E-1,-1.8521423E0,-2.6427298E0,-1.7980397E0,-4.7952878E-1,-1.1036882E0,-1.1394428E0,-2.00018E0,-1.4209917E0,-6.103937E-1,1.387547E-1,-4.0129074E-1,-2.4524395E0,-1.0487745E0,-1.6591377E0,-3.307768E-2,1.645552E-1,5.6954455E-1,-2.439869E-1,4.2276865E-1,6.86157E-1,3.044916E-1,1.3440562E0,8.689421E-1,-1.59182E0,3.6299264E-1,-1.906197E0,-5.4638636E-1,4.1452676E-1,-5.366368E-1,-1.1580158E0,-2.874102E-1],"categories":[],"categories_nodes":[],"categories_segments":[],"categories_sizes":[],"default_left":[0,0,0,0,0,0,0,0,0,0,0,0,0,0,0,0,0,0,0,0,0,0,0,0,0,0,0,0,0,0,0,0,0,0,0,0,0,0,0,0,0,0,0,0,0,0,0,0,0,0,0,0,0,0,0,0,0,0,0,0,0,0,0],"id":6,"left_children":[1,3,5,7,9,11,13,15,17,19,21,23,25,27,29,31,33,35,37,39,41,43,45,47,49,51,53,55,57,59,61,-1,-1,-1,-1,-1,-1,-1,-1,-1,-1,-1,-1,-1,-1,-1,-1,-1,-1,-1,-1,-1,-1,-1,-1,-1,-1,-1,-1,-1,-1,-1,-1],"loss_changes":[2.6712498E6,2.4710625E5,2.4082395E6,1.151785E5,1.4088816E5,6.497914E5,5.6444094E5,4.9092875E4,3.463325E4,8.022578E4,1.2337394E5,1.4548411E5,3.0982175E5,2.09193E5,4.259061E5,1.3090444E5,4.351475E4,2.1258219E4,2.040225E4,3.796028E4,2.643156E4,6.3258375E4,4.3219266E4,3.2447688E4,4.4250332E4,1.3276362E5,4.4624E4,6.7582375E5,9.4231625E4,2.1461775E5,2.0324362E5,0E0,0E0,0E0,0E0,0E0,0E0,0E0,0E0,0E0,0E0,0E0,0E0,0E0,0E0,0E0,0E0,0E0,0E0,0E0,0E0,0E0,0E0,0E0,0E0,0E0,0E0,0E0,0E0,0E0,0E0,0E0,0E0],"parents":[2147483647,0,0,1,1,2,2,3,3,4,4,5,5,6,6,7,7,8,8,9,9,10,10,11,11,12,12,13,13,14,14,15,15,16,16,17,17,18,18,19,19,20,20,21,21,22,22,23,23,24,24,25,25,26,26,27,27,28,28,29,29,30,30],"right_children":[2,4,6,8,10,12,14,16,18,20,22,24,26,28,30,32,34,36,38,40,42,44,46,48,50,52,54,56,58,60,62,-1,-1,-1,-1,-1,-1,-1,-1,-1,-1,-1,-1,-1,-1,-1,-1,-1,-1,-1,-1,-1,-1,-1,-1,-1,-1,-1,-1,-1,-1,-1,-1],"split_conditions":[-6.3955135E1,-7.5935974E1,4.150102E1,2.7694622E-1,8.29368E1,-3.5118946E1,9.3E1,-3.3628872E-1,7.1127576E-1,-4.8220584E-1,1.4353073E2,1.1E2,1.16774254E2,5.6209454E1,6.749279E1,1.22E2,-1.1478762E-1,-1.2502207E2,-2.8150105E1,2.69E2,-7.044783E1,-6.816155E1,-1.7011768E-1,-4.9142178E1,1.4907532E2,1.9708424E1,1.9014545E1,-4.228131E1,1.6030273E2,8.8536E1,-1.555044E1,2.2868283E-1,-1.8521423E0,-2.6427298E0,-1.7980397E0,-4.7952878E-1,-1.1036882E0,-1.1394428E0,-2.00018E0,-1.4209917E0,-6.103937E-1,1.387547E-1,-4.0129074E-1,-2.4524395E0,-1.0487745E0,-1.6591377E0,-3.307768E-2,1.645552E-1,5.6954455E-1,-2.439869E-1,4.2276865E-1,6.86157E-1,3.044916E-1,1.3440562E0,8.689421E-1,-1.59182E0,3.6299264E-1,-1.906197E0,-5.4638636E-1,4.1452676E-1,-5.366368E-1,-1.1580158E0,-2.874102E-1],"split_indices":[0,0,0,10,1,0,7,10,9,9,1,7,1,1,0,7,10,1,1,7,1,0,10,0,1,0,0,1,1,1,1,0,0,0,0,0,0,0,0,0,0,0,0,0,0,0,0,0,0,0,0,0,0,0,0,0,0,0,0,0,0,0,0],"split_type":[0,0,0,0,0,0,0,0,0,0,0,0,0,0,0,0,0,0,0,0,0,0,0,0,0,0,0,0,0,0,0,0,0,0,0,0,0,0,0,0,0,0,0,0,0,0,0,0,0,0,0,0,0,0,0,0,0,0,0,0,0,0,0],"sum_hessian":[1.148318E6,1.66085E5,9.82233E5,8.9722E4,7.6363E4,6.72542E5,3.09691E5,4.0792E4,4.893E4,5.5866E4,2.0497E4,1.83944E5,4.88598E5,9.9846E4,2.09845E5,1.6799E4,2.3993E4,3.8783E4,1.0147E4,2.2321E4,3.3545E4,1.2734E4,7.763E3,7.127E4,1.12674E5,4.02663E5,8.5935E4,6.547E4,3.4376E4,1.12561E5,9.7284E4,3.415E3,1.3384E4,8.52E3,1.5473E4,5.772E3,3.3011E4,4.325E3,5.822E3,8.248E3,1.4073E4,1.3994E4,1.9551E4,8.297E3,4.437E3,1.971E3,5.792E3,3.6572E4,3.4698E4,1.02862E5,9.812E3,2.8796E5,1.14703E5,6.0766E4,2.5169E4,3.8167E4,2.7303E4,2.8924E4,5.452E3,8.3928E4,2.8633E4,4.437E4,5.2914E4],"tree_param":{"num_deleted":"0","num_feature":"13","num_nodes":"63","size_leaf_vector":"1"}},{"base_weights":[-1.2367377E-4,-2.4890325E0,4.6103808E-1,-3.7097635E0,-1.6904054E0,9.396773E-1,-2.191568E0,-2.7419236E0,-5.233353E0,-2.9154506E0,-7.819061E-1,1.2454878E0,-2.2598606E-1,-1.5903771E0,-4.5175495E0,-1.6410637E0,-3.6620924E0,-5.7270026E0,-2.50431E0,-3.2466855E0,-1.0134327E0,-9.300146E-1,3.6917028E0,1.6927928E-1,1.6419808E0,8.315848E-1,-1.9051831E0,-9.192851E-1,-3.3165846E0,-2.6876156E0,-6.694149E0,-1.3594851E0,-3.6848143E-1,-3.9416086E-2,-1.2027712E0,-1.3595384E0,-1.9898968E0,-2.8304513E0,-2.8059533E-1,-7.2854E-1,-1.5821394E0,-1.0090097E0,2.1099174E-1,-1.3815744E-1,-7.44114E-1,1.8692247E0,2.8440505E-1,-2.3493545E-1,1.9921865E-1,4.1558257E-1,8.961052E-1,-2.2471423E-1,5.434464E-1,-1.0002007E-1,-1.3198552E0,2.4565306E-2,-6.392026E-1,-6.082399E-1,-1.5919645E0,-1.5368977E0,-2.0559487E-1,-1.6582555E0,-2.6273568E0],"categories":[],"categories_nodes":[],"categories_segments":[],"categories_sizes":[],"default_left":[0,0,0,0,0,0,0,0,0,0,0,0,0,0,0,0,0,0,0,0,0,0,0,0,0,0,0,0,0,0,0,0,0,0,0,0,0,0,0,0,0,0,0,0,0,0,0,0,0,0,0,0,0,0,0,0,0,0,0,0,0,0,0],"id":7,"left_children":[1,3,5,7,9,11,13,15,17,19,21,23,25,27,29,31,33,35,37,39,41,43,45,47,49,51,53,55,57,59,61,-1,-1,-1,-1,-1,-1,-1,-1,-1,-1,-1,-1,-1,-1,-1,-1,-1,-1,-1,-1,-1,-1,-1,-1,-1,-1,-1,-1,-1,-1,-1,-1],"loss_changes":[1.3180298E6,1.7499762E5,1.2300458E6,1.04669875E5,1.20772E5,2.9256444E5,2.0707856E5,4.3973406E4,3.7137125E4,2.9108438E4,4.128876E4,2.774263E5,3.0290816E5,1.3632031E5,1.2112594E5,2.358277E4,2.8984031E4,2.5256438E4,4.5944457E4,6.5260594E4,2.7656943E4,4.3900254E4,1.3905879E4,8.248507E4,1.640425E5,1.6209956E5,2.5841383E5,1.0276979E5,8.449534E4,8.057823E4,3.3395375E4,0E0,0E0,0E0,0E0,0E0,0E0,0E0,0E0,0E0,0E0,0E0,0E0,0E0,0E0,0E0,0E0,0E0,0E0,0E0,0E0,0E0,0E0,0E0,0E0,0E0,0E0,0E0,0E0,0E0,0E0,0E0,0E0],"parents":[2147483647,0,0,1,1,2,2,3,3,4,4,5,5,6,6,7,7,8,8,9,9,10,10,11,11,12,12,13,13,14,14,15,15,16,16,17,17,18,18,19,19,20,20,21,21,22,22,23,23,24,24,25,25,26,26,27,27,28,28,29,29,30,30],"right_children":[2,4,6,8,10,12,14,16,18,20,22,24,26,28,30,32,34,36,38,40,42,44,46,48,50,52,54,56,58,60,62,-1,-1,-1,-1,-1,-1,-1,-1,-1,-1,-1,-1,-1,-1,-1,-1,-1,-1,-1,-1,-1,-1,-1,-1,-1,-1,-1,-1,-1,-1,-1,-1],"split_conditions":[-6.1861053E1,1.4250833E-1,6.679553E1,4.0689598E1,-7.806786E1,4.00868E1,8.6976385E-1,1.32E2,1.5890463E2,1.26650635E2,1.6869931E2,-3.4411278E1,5.986907E-1,8.75539E-1,7.945105E1,-8.6491646E1,-9.987235E-1,-3.684844E-1,-8.507051E1,3.7893223E1,-8.507051E1,8.716195E1,-6.956792E1,-7.0214796E-1,1.2245802E2,-4.228131E1,4.0689598E1,3.9036822E-1,8.0881294E1,-1.696916E1,8.59061E-2,-1.3594851E0,-3.6848143E-1,-3.9416086E-2,-1.2027712E0,-1.3595384E0,-1.9898968E0,-2.8304513E0,-2.8059533E-1,-7.2854E-1,-1.5821394E0,-1.0090097E0,2.1099174E-1,-1.3815744E-1,-7.44114E-1,1.8692247E0,2.8440505E-1,-2.3493545E-1,1.9921865E-1,4.1558257E-1,8.961052E-1,-2.2471423E-1,5.434464E-1,-1.0002007E-1,-1.3198552E0,2.4565306E-2,-6.392026E-1,-6.082399E-1,-1.5919645E0,-1.5368977E0,-2.0559487E-1,-1.6582555E0,-2.6273568E0],"split_indices":[0,10,0,1,0,0,10,7,1,1,1,0,10,9,0,0,9,10,0,1,0,1,0,9,1,1,1,10,0,1,9,0,0,0,0,0,0,0,0,0,0,0,0,0,0,0,0,0,0,0,0,0,0,0,0,0,0,0,0,0,0,0,0],"split_type":[0,0,0,0,0,0,0,0,0,0,0,0,0,0,0,0,0,0,0,0,0,0,0,0,0,0,0,0,0,0,0,0,0,0,0,0,0,0,0,0,0,0,0,0,0,0,0,0,0,0,0,0,0,0,0,0,0,0,0,0,0,0,0],"sum_hessian":[1.148318E6,1.79507E5,9.68811E5,7.0991E4,1.08516E5,8.2072E5,1.48091E5,4.3415E4,2.7576E4,4.6207E4,6.2309E4,6.50153E5,1.70567E5,1.17677E5,3.0414E4,1.9768E4,2.3647E4,2.3351E4,4.225E3,3.9353E4,6.854E3,6.0313E4,1.996E3,1.7504E5,4.75113E5,1.04655E5,6.5912E4,8.4736E4,3.2941E4,1.6524E4,1.389E4,2.469E3,1.7299E4,2.117E3,2.153E4,1.0071E4,1.328E4,7.79E2,3.446E3,2.8038E4,1.1315E4,2.893E3,3.961E3,4.6295E4,1.4018E4,1.036E3,9.6E2,5.9845E4,1.15195E5,3.9897E5,7.6143E4,4.0051E4,6.4604E4,4.0434E4,2.5478E4,4.6394E4,3.8342E4,1.9992E4,1.2949E4,7.455E3,9.069E3,8.876E3,5.014E3],"tree_param":{"num_deleted":"0","num_feature":"13","num_nodes":"63","size_leaf_vector":"1"}},{"base_weights":[-1.0394401E-4,-2.2700694E0,2.6780352E-1,-2.6362822E0,-6.282617E-1,5.0973713E-1,-2.1260374E0,-1.8922868E0,-3.2316334E0,3.046819E-1,-1.2773671E0,7.455144E-1,-2.546832E-1,-4.6634246E-2,-2.618397E0,-5.2729683E0,-1.4668889E0,-3.6660447E0,-1.7599024E0,-2.0105782E0,8.1281567E-1,-1.837553E0,-2.2449459E-1,7.788261E-2,1.2579434E0,5.5160016E-1,-2.2783022E0,1.4053622E0,-8.0962485E-1,-3.5493817E0,-1.722196E0,-3.9765346E0,-1.5125271E0,-1.0985551E0,-3.543965E-1,-5.876975E-1,-1.2143831E0,-1.621035E0,-3.8769108E-1,-1.2118992E0,-3.9477196E-1,7.7754396E-1,9.315658E-2,-7.052939E-1,4.199002E-2,1.2547213E-1,-5.125188E-1,-3.2763156E-1,2.2684419E-1,5.877131E-1,1.471706E-1,-4.169992E-1,8.97227E-1,6.247451E-1,-9.060373E-1,1.4523701E-1,6.7476976E-1,-4.9401668E-1,1.4122525E-2,-7.522909E-1,-1.7832245E0,1.535334E-1,-1.1378834E0],"categories":[],"categories_nodes":[],"categories_segments":[],"categories_sizes":[],"default_left":[0,0,0,0,0,0,0,0,0,0,0,0,0,0,0,0,0,0,0,0,0,0,0,0,0,0,0,0,0,0,0,0,0,0,0,0,0,0,0,0,0,0,0,0,0,0,0,0,0,0,0,0,0,0,0,0,0,0,0,0,0,0,0],"id":8,"left_children":[1,3,5,7,9,11,13,15,17,19,21,23,25,27,29,31,33,35,37,39,41,43,45,47,49,51,53,55,57,59,61,-1,-1,-1,-1,-1,-1,-1,-1,-1,-1,-1,-1,-1,-1,-1,-1,-1,-1,-1,-1,-1,-1,-1,-1,-1,-1,-1,-1,-1,-1,-1,-1],"loss_changes":[6.983401E5,7.288256E4,5.94846E5,4.3894875E4,1.338913E4,1.6812581E5,9.652094E4,6.335503E4,3.5192188E4,1.0674496E4,7.689455E3,2.4390275E5,3.5878584E5,1.9998004E4,6.3593875E4,9.020719E3,2.4526469E4,2.7703312E4,2.1372977E4,2.296477E3,6.6474253E3,8.640627E3,4.3202725E3,2.4567394E5,2.1700244E5,7.446945E5,2.026809E5,4.832823E3,8.48601E3,9.325322E4,1.7968034E5,0E0,0E0,0E0,0E0,0E0,0E0,0E0,0E0,0E0,0E0,0E0,0E0,0E0,0E0,0E0,0E0,0E0,0E0,0E0,0E0,0E0,0E0,0E0,0E0,0E0,0E0,0E0,0E0,0E0,0E0,0E0,0E0],"parents":[2147483647,0,0,1,1,2,2,3,3,4,4,5,5,6,6,7,7,8,8,9,9,10,10,11,11,12,12,13,13,14,14,15,15,16,16,17,17,18,18,19,19,20,20,21,21,22,22,23,23,24,24,25,25,26,26,27,27,28,28,29,29,30,30],"right_children":[2,4,6,8,10,12,14,16,18,20,22,24,26,28,30,32,34,36,38,40,42,44,46,48,50,52,54,56,58,60,62,-1,-1,-1,-1,-1,-1,-1,-1,-1,-1,-1,-1,-1,-1,-1,-1,-1,-1,-1,-1,-1,-1,-1,-1,-1,-1,-1,-1,-1,-1,-1,-1],"split_conditions":[-7.097806E1,8.9406115E-1,7.525543E1,-1.9714268E1,-3.0975538E1,4.0796513E1,-3.322355E-1,-8.79061E1,1.3511134E2,-8.6491646E1,8.59061E-2,-2.248021E1,7.72711E1,-5.795791E-1,-2.7382476E0,-6.6045654E-1,-5.331371E-1,-8.6491646E1,-8.79061E1,-1.3906837E2,-1.4612962E2,1.3650323E2,2.3E1,-6.115299E-1,4.2180607E-1,-3.6618687E1,-4.2764622E-1,-8.420943E0,7.286813E-2,-5.640582E1,8.228928E1,-3.9765346E0,-1.5125271E0,-1.0985551E0,-3.543965E-1,-5.876975E-1,-1.2143831E0,-1.621035E0,-3.8769108E-1,-1.2118992E0,-3.9477196E-1,7.7754396E-1,9.315658E-2,-7.052939E-1,4.199002E-2,1.2547213E-1,-5.125188E-1,-3.2763156E-1,2.2684419E-1,5.877131E-1,1.471706E-1,-4.169992E-1,8.97227E-1,6.247451E-1,-9.060373E-1,1.4523701E-1,6.7476976E-1,-4.9401668E-1,1.4122525E-2,-7.522909E-1,-1.7832245E0,1.535334E-1,-1.1378834E0],"split_indices":[0,10,0,1,1,0,10,0,1,0,9,0,1,10,1,10,10,0,0,1,1,1,4,9,10,1,10,1,1,1,0,0,0,0,0,0,0,0,0,0,0,0,0,0,0,0,0,0,0,0,0,0,0,0,0,0,0,0,0,0,0,0,0],"split_type":[0,0,0,0,0,0,0,0,0,0,0,0,0,0,0,0,0,0,0,0,0,0,0,0,0,0,0,0,0,0,0,0,0,0,0,0,0,0,0,0,0,0,0,0,0,0,0,0,0,0,0,0,0,0,0,0,0,0,0,0,0,0,0],"sum_hessian":[1.148318E6,1.2122E5,1.027098E6,9.9112E4,2.2108E4,9.32823E5,9.4275E4,4.4058E4,5.5054E4,9.071E3,1.3037E4,7.12928E5,2.19895E5,1.8049E4,7.6226E4,4.923E3,3.9135E4,4.2506E4,1.2548E4,1.632E3,7.439E3,8.509E3,4.528E3,3.09582E5,4.03346E5,1.57244E5,6.2651E4,6.217E3,1.1832E4,3.7386E4,3.884E4,1.37E2,4.786E3,4.504E3,3.4631E4,7.772E3,3.4734E4,1.426E3,1.1122E4,4.15E2,1.217E3,1.637E3,5.802E3,6.755E3,1.754E3,3.16E3,1.368E3,1.13609E5,1.95973E5,2.10774E5,1.92572E5,8.7552E4,6.9692E4,9.108E3,5.3543E4,2.973E3,3.244E3,5.984E3,5.848E3,2.6054E4,1.1332E4,1.8684E4,2.0156E4],"tree_param":{"num_deleted":"0","num_feature":"13","num_nodes":"63","size_leaf_vector":"1"}},{"base_weights":[-8.587724E-5,-1.2488266E0,2.6638833E-1,-1.9337143E0,-6.940549E-1,8.2819E-1,-3.8070467E-1,-6.981184E-1,-2.512051E0,-1.2671537E0,-1.4559121E-1,4.1577518E-1,1.4528754E0,1.0084575E0,-1.275302E0,-1.7337619E0,2.9954213E-1,-1.8231215E0,-3.02831E0,-1.4668498E0,6.594502E-1,-3.9852107E-1,3.962839E-1,1.5062078E0,-1.0458933E-1,1.0444243E0,2.0968895E0,2.6174352E0,3.960361E-1,-6.2460524E-1,-2.6546354E0,-1.7604111E-1,-9.133671E-1,-2.9751024E-1,3.177415E-1,-7.141149E-1,-1.3760668E-1,-7.396086E-1,-1.3736392E0,-2.9903084E-1,-6.970925E-1,-7.158195E-1,7.331889E-1,-3.1689954E-1,8.056833E-3,2.2185287E-1,-1.6499344E-1,1.5715018E-1,6.5677893E-1,-1.18055426E-1,3.4133497E-1,5.278981E-2,4.697025E-1,6.879525E-1,3.943926E-1,1.0219326E0,2.437941E-2,3.353054E-1,-3.9331025E-1,-5.5856127E-1,1.7648906E-1,-1.1487259E0,-7.93589E-2],"categories":[],"categories_nodes":[],"categories_segments":[],"categories_sizes":[],"default_left":[0,0,0,0,0,0,0,0,0,0,0,0,0,0,0,0,0,0,0,0,0,0,0,0,0,0,0,0,0,0,0,0,0,0,0,0,0,0,0,0,0,0,0,0,0,0,0,0,0,0,0,0,0,0,0,0,0,0,0,0,0,0,0],"id":9,"left_children":[1,3,5,7,9,11,13,15,17,19,21,23,25,27,29,31,33,35,37,39,41,43,45,47,49,51,53,55,57,59,61,-1,-1,-1,-1,-1,-1,-1,-1,-1,-1,-1,-1,-1,-1,-1,-1,-1,-1,-1,-1,-1,-1,-1,-1,-1,-1,-1,-1,-1,-1,-1,-1],"loss_changes":[3.8211175E5,7.673084E4,3.4404175E5,6.4580062E4,3.5070504E4,1.3050678E5,5.4656E5,2.9773807E4,2.1889656E4,2.0992898E4,7.814291E3,1.7313662E5,5.2987062E4,1.6975889E5,2.4010678E5,2.1255172E4,1.4397571E4,2.0051516E4,3.0703219E4,1.9909375E4,2.7858982E4,1.0876822E4,5.89324E3,6.614156E4,7.414591E4,5.5800797E4,1.2000594E4,9.5041875E4,1.5372469E5,2.727846E5,2.4070456E5,0E0,0E0,0E0,0E0,0E0,0E0,0E0,0E0,0E0,0E0,0E0,0E0,0E0,0E0,0E0,0E0,0E0,0E0,0E0,0E0,0E0,0E0,0E0,0E0,0E0,0E0,0E0,0E0,0E0,0E0,0E0,0E0],"parents":[2147483647,0,0,1,1,2,2,3,3,4,4,5,5,6,6,7,7,8,8,9,9,10,10,11,11,12,12,13,13,14,14,15,15,16,16,17,17,18,18,19,19,20,20,21,21,22,22,23,23,24,24,25,25,26,26,27,27,28,28,29,29,30,30],"right_children":[2,4,6,8,10,12,14,16,18,20,22,24,26,28,30,32,34,36,38,40,42,44,46,48,50,52,54,56,58,60,62,-1,-1,-1,-1,-1,-1,-1,-1,-1,-1,-1,-1,-1,-1,-1,-1,-1,-1,-1,-1,-1,-1,-1,-1,-1,-1,-1,-1,-1,-1,-1,-1],"split_conditions":[-5.8333782E1,2.6037648E-1,2.1095905E1,-6.483534E1,-7.4499626E1,-1.0506143E1,-5.1205516E-1,-7.4499626E1,1.28E2,1.4629666E2,9.016342E-1,9.3E1,4.0689598E1,2.57E2,6.463739E1,2.33E2,-1.3762949E2,1.13E2,-6.6777374E1,2.9462084E1,-8.435555E1,-6.816155E1,-6.255123E1,-3.863099E1,1.1255405E2,9E0,1.4814369E1,7.386302E1,7.301797E1,-5.9186024E1,1.4214453E2,-1.7604111E-1,-9.133671E-1,-2.9751024E-1,3.177415E-1,-7.141149E-1,-1.3760668E-1,-7.396086E-1,-1.3736392E0,-2.9903084E-1,-6.970925E-1,-7.158195E-1,7.331889E-1,-3.1689954E-1,8.056833E-3,2.2185287E-1,-1.6499344E-1,1.5715018E-1,6.5677893E-1,-1.18055426E-1,3.4133497E-1,5.278981E-2,4.697025E-1,6.879525E-1,3.943926E-1,1.0219326E0,2.437941E-2,3.353054E-1,-3.9331025E-1,-5.5856127E-1,1.7648906E-1,-1.1487259E0,-7.93589E-2],"split_indices":[0,10,0,1,0,0,9,0,7,1,10,7,1,7,1,7,1,7,0,1,0,0,0,0,1,5,0,0,1,1,1,0,0,0,0,0,0,0,0,0,0,0,0,0,0,0,0,0,0,0,0,0,0,0,0,0,0,0,0,0,0,0,0],"split_type":[0,0,0,0,0,0,0,0,0,0,0,0,0,0,0,0,0,0,0,0,0,0,0,0,0,0,0,0,0,0,0,0,0,0,0,0,0,0,0,0,0,0,0,0,0,0,0,0,0,0,0,0,0,0,0,0,0,0,0,0,0,0,0],"sum_hessian":[1.148318E6,2.01949E5,9.46369E5,9.0375E4,1.11574E5,5.06569E5,4.398E5,2.8815E4,6.156E4,5.4561E4,5.7013E4,3.05127E5,2.01442E5,1.72279E5,2.67521E5,1.4138E4,1.4677E4,2.6372E4,3.5188E4,4.9437E4,5.124E3,3.887E4,1.8143E4,9.857E4,2.06557E5,1.23266E5,7.8176E4,4.7495E4,1.24784E5,1.81772E5,8.5749E4,7.541E3,6.597E3,5.436E3,9.241E3,1.8724E4,7.648E3,2.5817E4,9.371E3,3.1924E4,1.7513E4,1.893E3,3.231E3,1.5264E4,2.3606E4,1.3314E4,4.829E3,4.0428E4,5.8142E4,1.67584E5,3.8973E4,4.6235E4,7.7031E4,6.2493E4,1.5683E4,3.6225E4,1.127E4,8.7707E4,3.7077E4,8.9982E4,9.179E4,5.7496E4,2.8253E4],"tree_param":{"num_deleted":"0","num_feature":"13","num_nodes":"63","size_leaf_vector":"1"}},{"base_weights":[-6.282373E-5,-8.660843E-1,1.8974724E-1,-1.408996E0,-5.116647E-1,3.5889837E-1,-1.2551157E0,-4.8285785E-1,-1.857373E0,-8.253063E-1,-2.5157515E-2,1.5922765E0,1.7614561E-1,-2.0631955E0,-4.9910876E-1,-8.061124E-1,2.6170776E0,-2.1634274E0,-9.1750777E-1,2.6005948E-1,-1.0337121E0,-1.4569551E-1,1.1445725E0,1.2394998E0,2.3405898E0,-1.1799616E0,5.4848653E-1,-1.0509392E0,-4.41626E0,7.50015E-1,-2.0140455E0,-8.889046E-3,-6.172111E-1,1.253344E0,-2.020624E-1,-6.963872E-1,3.647831E-2,-1.0520549E0,-2.099092E-1,-8.8118666E-1,2.838872E-1,-2.3579472E-1,-6.171272E-1,8.1777416E-2,-1.1131137E-1,5.04725E-1,-5.3502087E-2,4.5289895E-1,1.00838155E-1,4.9585602E-1,1.1746081E0,-1.390262E-1,-9.485588E-1,3.0671552E-1,4.453879E-2,1.9838312E-1,-4.4410506E-1,-2.0228589E0,-8.4348917E-1,9.543334E-1,-3.6160833E-1,-1.104498E0,-2.597497E-1],"categories":[],"categories_nodes":[],"categories_segments":[],"categories_sizes":[],"default_left":[0,0,0,0,0,0,0,0,0,0,0,0,0,0,0,0,0,0,0,0,0,0,0,0,0,0,0,0,0,0,0,0,0,0,0,0,0,0,0,0,0,0,0,0,0,0,0,0,0,0,0,0,0,0,0,0,0,0,0,0,0,0,0],"id":10,"left_children":[1,3,5,7,9,11,13,15,17,19,21,23,25,27,29,31,33,35,37,39,41,43,45,47,49,51,53,55,57,59,61,-1,-1,-1,-1,-1,-1,-1,-1,-1,-1,-1,-1,-1,-1,-1,-1,-1,-1,-1,-1,-1,-1,-1,-1,-1,-1,-1,-1,-1,-1,-1,-1],"loss_changes":[1.8876038E5,3.972158E4,2.3019688E5,3.385767E4,1.9058637E4,1.9005366E5,6.0302906E4,2.6656125E4,1.5800922E4,1.7178324E4,6.9033755E3,2.8722125E4,3.7080512E5,1.1364075E5,9.651102E4,2.3403344E4,1.290391E4,1.4949281E4,7.60966E3,2.6845645E4,1.6150219E4,4.18392E3,3.254796E3,1.804807E4,3.774892E4,2.246548E5,1.0922428E5,2.4530203E4,5.3558156E4,1.3288422E5,4.4128586E4,0E0,0E0,0E0,0E0,0E0,0E0,0E0,0E0,0E0,0E0,0E0,0E0,0E0,0E0,0E0,0E0,0E0,0E0,0E0,0E0,0E0,0E0,0E0,0E0,0E0,0E0,0E0,0E0,0E0,0E0,0E0,0E0],"parents":[2147483647,0,0,1,1,2,2,3,3,4,4,5,5,6,6,7,7,8,8,9,9,10,10,11,11,12,12,13,13,14,14,15,15,16,16,17,17,18,18,19,19,20,20,21,21,22,22,23,23,24,24,25,25,26,26,27,27,28,28,29,29,30,30],"right_children":[2,4,6,8,10,12,14,16,18,20,22,24,26,28,30,32,34,36,38,40,42,44,46,48,50,52,54,56,58,60,62,-1,-1,-1,-1,-1,-1,-1,-1,-1,-1,-1,-1,-1,-1,-1,-1,-1,-1,-1,-1,-1,-1,-1,-1,-1,-1,-1,-1,-1,-1,-1,-1],"split_conditions":[-5.7637726E1,1.4250833E-1,7.457529E1,-6.203203E1,-7.028315E1,-1.3346335E2,-5.565995E0,2.73E2,2.5E1,-1.2083847E2,1.4629666E2,3.238796E1,-6.624376E1,-5.7806747E1,8.299053E1,2.35E2,-9.9831375E1,1.6447078E2,-5.619233E-1,-8.6491646E1,7.8659654E-1,-6.7634094E1,3.2E2,1.1994745E1,7.3866796E-1,3.9401253E1,-1.8369701E-16,-3.1596187E-1,8.0881294E1,7.72711E1,7.02268E1,-8.889046E-3,-6.172111E-1,1.253344E0,-2.020624E-1,-6.963872E-1,3.647831E-2,-1.0520549E0,-2.099092E-1,-8.8118666E-1,2.838872E-1,-2.3579472E-1,-6.171272E-1,8.1777416E-2,-1.1131137E-1,5.04725E-1,-5.3502087E-2,4.5289895E-1,1.00838155E-1,4.9585602E-1,1.1746081E0,-1.390262E-1,-9.485588E-1,3.0671552E-1,4.453879E-2,1.9838312E-1,-4.4410506E-1,-2.0228589E0,-8.4348917E-1,9.543334E-1,-3.6160833E-1,-1.104498E0,-2.597497E-1],"split_indices":[0,10,0,1,0,1,1,7,4,1,1,0,1,1,0,7,1,1,10,0,9,1,7,0,10,0,12,10,0,1,1,0,0,0,0,0,0,0,0,0,0,0,0,0,0,0,0,0,0,0,0,0,0,0,0,0,0,0,0,0,0,0,0],"split_type":[0,0,0,0,0,0,0,0,0,0,0,0,0,0,0,0,0,0,0,0,0,0,0,0,0,0,0,0,0,0,0,0,0,0,0,0,0,0,0,0,0,0,0,0,0,0,0,0,0,0,0,0,0,0,0,0,0,0,0,0,0,0,0],"sum_hessian":[1.148318E6,2.06436E5,9.41882E5,8.1535E4,1.24901E5,8.43172E5,9.871E4,2.6598E4,5.4937E4,7.5942E4,4.8959E4,1.08811E5,7.34361E5,4.7711E4,5.0999E4,2.4087E4,2.511E3,4.1441E4,1.3496E4,1.2233E4,6.3709E4,4.4386E4,4.573E3,7.3951E4,3.486E4,1.58195E5,5.76166E5,3.3361E4,1.435E4,2.7952E4,2.3047E4,1.4864E4,9.223E3,1.703E3,8.08E2,3.8763E4,2.678E3,1.046E3,1.245E4,2.161E3,1.0072E4,5.1294E4,1.2415E4,1.554E4,2.8846E4,3.251E3,1.322E3,5.6926E4,1.7025E4,2.4265E4,1.0595E4,1.16189E5,4.2006E4,2.6373E5,3.12436E5,6.689E3,2.6672E4,5.856E3,8.494E3,1.246E4,1.5492E4,9.397E3,1.365E4],"tree_param":{"num_deleted":"0","num_feature":"13","num_nodes":"63","size_leaf_vector":"1"}},{"base_weights":[-4.810102E-5,-6.030896E-1,1.356497E-1,-7.493444E-1,1.4016102E-1,3.440545E-1,-4.9307314E-1,-1.1768438E0,-4.835708E-1,7.939974E-2,1.4889679E0,2.026228E-1,1.4121825E0,-1.48951E-1,-1.8097426E0,-1.5254408E-1,-1.4628435E0,-5.858796E-1,1.9917785E0,1.6384013E-1,-8.3746606E-1,-3.5417213E0,2.2507513E0,1.1083626E0,1.9796705E-2,1.2697117E0,4.9784136E0,-1.0629996E0,1.0220364E0,-2.292991E-1,-2.5147388E0,1.0836396E0,-3.02617E-1,-8.4303886E-1,-3.2805872E-1,-6.658256E-2,-5.480922E-1,1.2106569E0,1.3100584E-1,1.5859549E-1,-7.071131E-3,-5.0383925E-2,-3.6780077E-1,-8.786503E-1,-1.6640499E0,1.1067435E0,3.5987025E-1,2.4010101E-1,7.2420174E-1,1.3809404E-1,-1.9145264E-1,2.1878505E-1,5.152578E-1,-2.6441867E-2,2.5478265E0,9.1906324E-2,-5.0280386E-1,5.6497943E-1,-5.507728E-1,3.259118E-1,-3.4816816E-1,4.8062965E-2,-9.430917E-1],"categories":[],"categories_nodes":[],"categories_segments":[],"categories_sizes":[],"default_left":[0,0,0,0,0,0,0,0,0,0,0,0,0,0,0,0,0,0,0,0,0,0,0,0,0,0,0,0,0,0,0,0,0,0,0,0,0,0,0,0,0,0,0,0,0,0,0,0,0,0,0,0,0,0,0,0,0,0,0,0,0,0,0],"id":11,"left_children":[1,3,5,7,9,11,13,15,17,19,21,23,25,27,29,31,33,35,37,39,41,43,45,47,49,51,53,55,57,59,61,-1,-1,-1,-1,-1,-1,-1,-1,-1,-1,-1,-1,-1,-1,-1,-1,-1,-1,-1,-1,-1,-1,-1,-1,-1,-1,-1,-1,-1,-1,-1,-1],"loss_changes":[9.3968625E4,2.292936E4,1.2282491E5,2.0024727E4,2.8423354E3,1.0635444E5,1.05736266E5,1.9793484E4,2.7525643E4,2.5696462E3,5.737254E3,1.0294973E5,4.181911E4,1.9802672E5,5.387578E4,4.754318E4,2.627821E4,4.714245E4,1.3709041E4,2.0778306E3,7.2790564E2,2.2584912E2,1.9596831E3,4.1991258E4,1.4993533E5,1.9156125E4,5.630204E4,8.722254E4,1.9963566E5,1.8278082E4,5.6252438E4,0E0,0E0,0E0,0E0,0E0,0E0,0E0,0E0,0E0,0E0,0E0,0E0,0E0,0E0,0E0,0E0,0E0,0E0,0E0,0E0,0E0,0E0,0E0,0E0,0E0,0E0,0E0,0E0,0E0,0E0,0E0,0E0],"parents":[2147483647,0,0,1,1,2,2,3,3,4,4,5,5,6,6,7,7,8,8,9,9,10,10,11,11,12,12,13,13,14,14,15,15,16,16,17,17,18,18,19,19,20,20,21,21,22,22,23,23,24,24,25,25,26,26,27,27,28,28,29,29,30,30],"right_children":[2,4,6,8,10,12,14,16,18,20,22,24,26,28,30,32,34,36,38,40,42,44,46,48,50,52,54,56,58,60,62,-1,-1,-1,-1,-1,-1,-1,-1,-1,-1,-1,-1,-1,-1,-1,-1,-1,-1,-1,-1,-1,-1,-1,-1,-1,-1,-1,-1,-1,-1,-1,-1],"split_conditions":[-5.692976E1,9.142438E-1,5.350669E1,-7.736081E1,1.6447078E2,1.379042E2,1.0549506E2,-3.4841082E-1,1.6589333E2,-5.9761757E1,-8.5788E1,-1.2643067E2,4.925481E1,-1.9714268E1,-5.051062E-2,1.22E2,-1.6126573E-2,8.716195E1,1.18E2,2.2E1,-5.7806747E1,9.976336E-1,-7.3075745E1,3.238796E1,5.707842E-1,2.7281126E-1,1.7223625E-1,-1.3064583E2,8.157557E1,1E1,6.049142E1,1.0836396E0,-3.02617E-1,-8.4303886E-1,-3.2805872E-1,-6.658256E-2,-5.480922E-1,1.2106569E0,1.3100584E-1,1.5859549E-1,-7.071131E-3,-5.0383925E-2,-3.6780077E-1,-8.786503E-1,-1.6640499E0,1.1067435E0,3.5987025E-1,2.4010101E-1,7.2420174E-1,1.3809404E-1,-1.9145264E-1,2.1878505E-1,5.152578E-1,-2.6441867E-2,2.5478265E0,9.1906324E-2,-5.0280386E-1,5.6497943E-1,-5.507728E-1,3.259118E-1,-3.4816816E-1,4.8062965E-2,-9.430917E-1],"split_indices":[0,10,0,0,1,1,1,10,1,0,0,1,0,1,10,7,10,1,7,7,1,10,0,0,10,10,10,1,0,5,0,0,0,0,0,0,0,0,0,0,0,0,0,0,0,0,0,0,0,0,0,0,0,0,0,0,0,0,0,0,0,0,0],"split_type":[0,0,0,0,0,0,0,0,0,0,0,0,0,0,0,0,0,0,0,0,0,0,0,0,0,0,0,0,0,0,0,0,0,0,0,0,0,0,0,0,0,0,0,0,0,0,0,0,0,0,0,0,0,0,0,0,0,0,0,0,0,0,0],"sum_hessian":[1.148318E6,2.10932E5,9.37386E5,1.7625E5,3.4682E4,7.04022E5,2.33364E5,6.7566E4,1.08684E5,3.3188E4,1.494E3,6.21703E5,8.2319E4,1.85011E5,4.8353E4,1.4748E4,5.2818E4,1.04371E5,4.313E3,3.039E4,2.798E3,1.96E2,1.298E3,1.04415E5,5.17288E5,7.9158E4,3.161E3,1.03905E5,8.1106E4,1.4916E4,3.3437E4,2.732E3,1.2016E4,1.1362E4,4.1456E4,8.0706E4,2.3665E4,1.863E3,2.45E3,1.0313E4,2.0077E4,1.028E3,1.77E3,1.52E2,4.4E1,5.47E2,7.51E2,8.4485E4,1.993E4,3.09845E5,2.07443E5,3.5871E4,4.3287E4,1.295E3,1.866E3,3.2131E4,7.1774E4,6.2325E4,1.8781E4,6.182E3,8.734E3,6.365E3,2.7072E4],"tree_param":{"num_deleted":"0","num_feature":"13","num_nodes":"63","size_leaf_vector":"1"}},{"base_weights":[-3.204346E-5,-4.003822E-1,1.0704615E-1,-4.9985055E-2,-6.6428685E-1,4.2799228E-1,-2.1354403E-1,-2.3022447E0,8.197994E-2,-9.8870015E-1,6.4203635E-2,-2.5482318E-1,7.8029853E-1,4.9326378E-1,-1.2355567E0,-8.567982E0,-2.151538E0,-9.853292E-1,1.906675E-1,-3.5753947E-1,-1.5208359E0,9.482351E-1,-4.7027445E-1,-8.002443E-1,1.4207071E0,4.9516907E-1,1.2246966E0,-4.3349436E-1,1.1460589E0,-2.722214E-1,-2.7185366E0,-3.0389066E0,-1.5658396E0,2.1134098E-1,-8.2104933E-1,-4.3249324E-2,-9.3360674E-1,-2.3726087E-2,2.1906188E-1,-3.3392814E-1,6.9731556E-2,-8.0807686E-1,-4.06933E-1,-1.3289845E-1,4.832043E-1,-2.7514717E-1,1.80736E-1,-3.754932E-1,-2.583532E-2,2.5819328E-1,6.0511744E-1,1.7491974E-2,2.4305843E-1,2.5786744E-2,4.6761823E-1,-2.7563792E-2,-4.1938818E-1,6.582067E-1,1.9832104E-1,-4.565984E-1,3.5151392E-1,-1.191064E0,2.787061E-1],"categories":[],"categories_nodes":[],"categories_segments":[],"categories_sizes":[],"default_left":[0,0,0,0,0,0,0,0,0,0,0,0,0,0,0,0,0,0,0,0,0,0,0,0,0,0,0,0,0,0,0,0,0,0,0,0,0,0,0,0,0,0,0,0,0,0,0,0,0,0,0,0,0,0,0,0,0,0,0,0,0,0,0],"id":12,"left_children":[1,3,5,7,9,11,13,15,17,19,21,23,25,27,29,31,33,35,37,39,41,43,45,47,49,51,53,55,57,59,61,-1,-1,-1,-1,-1,-1,-1,-1,-1,-1,-1,-1,-1,-1,-1,-1,-1,-1,-1,-1,-1,-1,-1,-1,-1,-1,-1,-1,-1,-1,-1,-1],"loss_changes":[4.922707E4,2.240764E4,9.32204E4,3.0941324E4,3.2665633E4,1.0891356E5,3.274147E5,5.4225527E3,1.1408062E4,3.2118734E4,2.0123082E4,1.4082386E5,3.7842266E4,1.6210333E5,2.6473012E5,6.5309766E2,9.409701E3,1.6258858E4,1.2990205E4,1.9500936E4,9.999547E3,1.4789862E4,1.2724352E4,3.7474805E4,1.2637602E4,2.503768E4,4.4399453E4,3.6485074E4,7.990061E4,2.0272228E5,3.3316188E5,0E0,0E0,0E0,0E0,0E0,0E0,0E0,0E0,0E0,0E0,0E0,0E0,0E0,0E0,0E0,0E0,0E0,0E0,0E0,0E0,0E0,0E0,0E0,0E0,0E0,0E0,0E0,0E0,0E0,0E0,0E0,0E0],"parents":[2147483647,0,0,1,1,2,2,3,3,4,4,5,5,6,6,7,7,8,8,9,9,10,10,11,11,12,12,13,13,14,14,15,15,16,16,17,17,18,18,19,19,20,20,21,21,22,22,23,23,24,24,25,25,26,26,27,27,28,28,29,29,30,30],"right_children":[2,4,6,8,10,12,14,16,18,20,22,24,26,28,30,32,34,36,38,40,42,44,46,48,50,52,54,56,58,60,62,-1,-1,-1,-1,-1,-1,-1,-1,-1,-1,-1,-1,-1,-1,-1,-1,-1,-1,-1,-1,-1,-1,-1,-1,-1,-1,-1,-1,-1,-1,-1,-1],"split_conditions":[-5.19799E1,-2.538348E1,1.9014545E1,-8.79061E1,1.16774254E2,-7.0214796E-1,5.5657554E-1,-6.6045654E-1,-5.331371E-1,-1.8369701E-16,9E0,1.5281103E0,3.931311E1,1.23E2,3.7893223E1,1.7E1,-3.3628872E-1,2.2E1,1.6E1,2.3955657E-1,-9.572324E-1,-1.6126573E-2,-6.3261883E1,2.85E2,1.0590655E1,1E1,-3.5817352E1,8.576711E1,4.150102E1,-6.3425785E1,1.4353073E2,-3.0389066E0,-1.5658396E0,2.1134098E-1,-8.2104933E-1,-4.3249324E-2,-9.3360674E-1,-2.3726087E-2,2.1906188E-1,-3.3392814E-1,6.9731556E-2,-8.0807686E-1,-4.06933E-1,-1.3289845E-1,4.832043E-1,-2.7514717E-1,1.80736E-1,-3.754932E-1,-2.583532E-2,2.5819328E-1,6.0511744E-1,1.7491974E-2,2.4305843E-1,2.5786744E-2,4.6761823E-1,-2.7563792E-2,-4.1938818E-1,6.582067E-1,1.9832104E-1,-4.565984E-1,3.5151392E-1,-1.191064E0,2.787061E-1],"split_indices":[0,1,0,0,1,9,10,10,10,12,5,0,1,7,1,4,10,4,5,10,9,10,0,7,0,5,0,1,0,1,1,0,0,0,0,0,0,0,0,0,0,0,0,0,0,0,0,0,0,0,0,0,0,0,0,0,0,0,0,0,0,0,0],"split_type":[0,0,0,0,0,0,0,0,0,0,0,0,0,0,0,0,0,0,0,0,0,0,0,0,0,0,0,0,0,0,0,0,0,0,0,0,0,0,0,0,0,0,0,0,0,0,0,0,0,0,0,0,0,0,0,0,0,0,0,0,0,0,0],"sum_hessian":[1.148318E6,2.42319E5,9.05999E5,1.04101E5,1.38218E5,4.52748E5,4.53251E5,5.761E3,9.834E4,9.5631E4,4.2587E4,1.54094E5,2.98654E5,2.67945E5,1.85306E5,1.34E2,5.627E3,9.088E3,8.9252E4,4.3746E4,5.1885E4,1.6046E4,2.6541E4,1.16252E5,3.7842E4,1.81929E5,1.16725E5,1.10736E5,1.57209E5,1.12335E5,7.2971E4,9E1,4.4E1,9.57E2,4.67E3,6.513E3,2.575E3,5.9503E4,2.9749E4,1.9181E4,2.4565E4,6.377E3,4.5508E4,5.176E3,1.087E4,1.8736E4,7.805E3,7.1228E4,4.5024E4,1.9516E4,1.8326E4,7.6225E4,1.05704E5,2.6474E4,9.0251E4,8.1773E4,2.8963E4,4.9736E4,1.07473E5,6.0216E4,5.2119E4,5.4328E4,1.8643E4],"tree_param":{"num_deleted":"0","num_feature":"13","num_nodes":"63","size_leaf_vector":"1"}},{"base_weights":[-2.8376156E-5,4.9536613E-1,-8.37581E-2,1.2060409E0,2.8462338E-1,-7.154389E-1,6.622518E-2,1.4974341E0,-7.131697E-1,1.0508873E-1,1.0894538E0,-1.1662936E0,1.9092648E-1,3.2989252E-1,-2.4442254E-1,8.0632436E-1,3.9940968E0,5.9431016E-2,-2.6302063E0,-7.054597E-1,2.1016113E-1,5.752431E-1,2.0238338E0,-6.542282E-1,-2.316489E0,7.6330644E-1,-7.684548E-1,8.0036855E-1,-3.2306463E-1,-4.7750494E-1,5.0533926E-1,3.8359824E-1,-8.637905E-2,1.3319709E0,5.3365165E-1,-5.736946E-1,1.8319519E-1,-1.6212435E0,-5.8465326E-1,9.4197404E-1,-4.0787402E-1,9.2340544E-2,-2.7292788E-1,5.666495E-1,1.2649204E-1,1.214076E0,-9.411993E-2,-2.9811641E-2,-3.0781686E-1,8.0710925E-2,-1.1556891E0,-9.918399E-2,6.006445E-1,5.270142E-2,-9.6887547E-1,4.33054E-2,4.0600684E-1,1.4547786E-1,-2.474518E-1,5.516294E-2,-2.757749E-1,2.5524473E-1,-3.6498025E-1],"categories":[],"categories_nodes":[],"categories_segments":[],"categories_sizes":[],"default_left":[0,0,0,0,0,0,0,0,0,0,0,0,0,0,0,0,0,0,0,0,0,0,0,0,0,0,0,0,0,0,0,0,0,0,0,0,0,0,0,0,0,0,0,0,0,0,0,0,0,0,0,0,0,0,0,0,0,0,0,0,0,0,0],"id":13,"left_children":[1,3,5,7,9,11,13,15,17,19,21,23,25,27,29,31,33,35,37,39,41,43,45,47,49,51,53,55,57,59,61,-1,-1,-1,-1,-1,-1,-1,-1,-1,-1,-1,-1,-1,-1,-1,-1,-1,-1,-1,-1,-1,-1,-1,-1,-1,-1,-1,-1,-1,-1,-1,-1],"loss_changes":[4.763145E4,2.4864996E4,9.30643E4,2.1236723E4,1.8502896E4,7.7020516E4,6.501978E4,5.688029E4,7.4145615E3,8.916971E3,1.1220172E4,7.413222E4,3.438275E4,1.3190519E5,6.3688594E4,1.3346113E4,7.050297E3,3.8801897E3,2.7073691E3,3.022604E4,1.0135366E4,3.039087E3,3.9205504E4,1.7968762E4,1.539676E5,5.3145938E4,5.4366234E4,9.053286E4,7.2903484E4,8.122522E4,5.1416176E4,0E0,0E0,0E0,0E0,0E0,0E0,0E0,0E0,0E0,0E0,0E0,0E0,0E0,0E0,0E0,0E0,0E0,0E0,0E0,0E0,0E0,0E0,0E0,0E0,0E0,0E0,0E0,0E0,0E0,0E0,0E0,0E0],"parents":[2147483647,0,0,1,1,2,2,3,3,4,4,5,5,6,6,7,7,8,8,9,9,10,10,11,11,12,12,13,13,14,14,15,15,16,16,17,17,18,18,19,19,20,20,21,21,22,22,23,23,24,24,25,25,26,26,27,27,28,28,29,29,30,30],"right_children":[2,4,6,8,10,12,14,16,18,20,22,24,26,28,30,32,34,36,38,40,42,44,46,48,50,52,54,56,58,60,62,-1,-1,-1,-1,-1,-1,-1,-1,-1,-1,-1,-1,-1,-1,-1,-1,-1,-1,-1,-1,-1,-1,-1,-1,-1,-1,-1,-1,-1,-1,-1,-1],"split_conditions":[-1.2784087E2,6.8E1,-6.903328E1,6.610695E1,3.3E2,1.6E1,2.5881904E-1,3.238796E1,2.2E1,-6.956792E1,2.6068062E1,3.4487957E1,6.258885E-1,7.5840965E1,1.210152E2,-4.134726E0,6.049142E1,1.7E1,-1.7016348E2,-9.785481E-1,7.735921E1,-7.736081E1,5.9798954E1,-4.0035534E1,-5.9782916E-1,6.362307E0,3.9401253E1,-7.649336E0,1.1E1,6.971357E0,5.9798954E1,3.8359824E-1,-8.637905E-2,1.3319709E0,5.3365165E-1,-5.736946E-1,1.8319519E-1,-1.6212435E0,-5.8465326E-1,9.4197404E-1,-4.0787402E-1,9.2340544E-2,-2.7292788E-1,5.666495E-1,1.2649204E-1,1.214076E0,-9.411993E-2,-2.9811641E-2,-3.0781686E-1,8.0710925E-2,-1.1556891E0,-9.918399E-2,6.006445E-1,5.270142E-2,-9.6887547E-1,4.33054E-2,4.0600684E-1,1.4547786E-1,-2.474518E-1,5.516294E-2,-2.757749E-1,2.5524473E-1,-3.6498025E-1],"split_indices":[1,7,1,0,7,5,12,0,4,0,0,0,10,1,1,0,0,7,1,9,0,0,0,0,9,0,0,0,5,1,0,0,0,0,0,0,0,0,0,0,0,0,0,0,0,0,0,0,0,0,0,0,0,0,0,0,0,0,0,0,0,0,0],"split_type":[0,0,0,0,0,0,0,0,0,0,0,0,0,0,0,0,0,0,0,0,0,0,0,0,0,0,0,0,0,0,0,0,0,0,0,0,0,0,0,0,0,0,0,0,0,0,0,0,0,0,0,0,0,0,0,0,0,0,0,0,0,0,0],"sum_hessian":[1.148318E6,1.66023E5,9.82295E5,3.7971E4,1.28052E5,1.88479E5,7.93816E5,3.2966E4,5.005E3,1.04698E5,2.3354E4,1.25868E5,6.2611E4,4.29376E5,3.6444E5,2.582E4,7.146E3,3.568E3,1.437E3,1.2014E4,9.2684E4,1.5065E4,8.289E3,8.7095E4,3.8773E4,3.9215E4,2.3396E4,2.4956E5,1.79816E5,2.78013E5,8.6427E4,1.8035E4,7.785E3,5.948E3,1.198E3,7.79E2,2.789E3,2.82E2,1.155E3,1.746E3,1.0268E4,8.5252E4,7.432E3,1.576E3,1.3489E4,4.443E3,3.846E3,3.4947E4,5.2148E4,1.4449E4,2.4324E4,2.0826E4,1.8389E4,1.691E4,6.486E3,1.14147E5,1.35413E5,6.8888E4,1.10928E5,1.1133E5,1.66683E5,7.1985E4,1.4442E4],"tree_param":{"num_deleted":"0","num_feature":"13","num_nodes":"63","size_leaf_vector":"1"}},{"base_weights":[-2.0026562E-5,3.44068E-1,-6.3776225E-2,-1.977352E0,3.80929E-1,-5.5867684E-1,4.8748776E-2,1.6015062E-1,-2.4891393E0,-9.555939E-3,6.0204154E-1,3.2137835E-1,-8.7313634E-1,-3.3340707E-1,1.9844742E-1,-2.1062562E0,2.4936137E0,-6.3767705E0,-2.0442698E0,5.9886205E-1,-2.2163E-1,7.544717E-1,-3.7527165E-1,-6.936401E-1,1.4283631E0,-3.1663483E-1,-2.1757329E0,-4.865684E-1,5.087413E-1,5.706739E-1,-1.2080075E-1,1.7632756E-1,-1.1140814E0,4.382435E-1,1.8623651E0,-9.1993755E-1,-2.6716766E0,-1.3630239E0,-4.3391895E-1,9.748974E-1,3.3346444E-2,-5.493892E-1,1.8085603E-3,1.2728149E-1,5.7347095E-1,9.108164E-1,-1.6828714E-1,1.6731954E-1,-5.177051E-1,7.4604356E-1,1.01323E-1,-4.0225932E-1,-5.159929E-2,-1.2793018E0,2.5142059E-2,7.359554E-2,-1.8149377E-1,-6.111776E-1,2.2399478E-1,6.991837E-2,2.7301362E-1,1.8538761E-1,-2.530386E-1],"categories":[],"categories_nodes":[],"categories_segments":[],"categories_sizes":[],"default_left":[0,0,0,0,0,0,0,0,0,0,0,0,0,0,0,0,0,0,0,0,0,0,0,0,0,0,0,0,0,0,0,0,0,0,0,0,0,0,0,0,0,0,0,0,0,0,0,0,0,0,0,0,0,0,0,0,0,0,0,0,0,0,0],"id":14,"left_children":[1,3,5,7,9,11,13,15,17,19,21,23,25,27,29,31,33,35,37,39,41,43,45,47,49,51,53,55,57,59,61,-1,-1,-1,-1,-1,-1,-1,-1,-1,-1,-1,-1,-1,-1,-1,-1,-1,-1,-1,-1,-1,-1,-1,-1,-1,-1,-1,-1,-1,-1,-1,-1],"loss_changes":[2.519155E4,1.5361486E4,5.3951742E4,3.0700127E3,1.5256996E4,4.966739E4,4.515674E4,2.8769492E3,3.9025273E3,8.243323E3,1.680746E4,5.3088188E4,9.5848805E4,2.8657006E4,6.7398125E4,1.1973232E3,1.0190078E3,1.9148037E3,3.0310781E3,2.1347852E4,1.7360426E4,3.728922E4,9.644464E3,3.1833117E4,2.608782E4,1.3724506E4,1.867898E5,1.6291461E4,2.0710258E4,3.0002336E4,1.6299828E5,0E0,0E0,0E0,0E0,0E0,0E0,0E0,0E0,0E0,0E0,0E0,0E0,0E0,0E0,0E0,0E0,0E0,0E0,0E0,0E0,0E0,0E0,0E0,0E0,0E0,0E0,0E0,0E0,0E0,0E0,0E0,0E0],"parents":[2147483647,0,0,1,1,2,2,3,3,4,4,5,5,6,6,7,7,8,8,9,9,10,10,11,11,12,12,13,13,14,14,15,15,16,16,17,17,18,18,19,19,20,20,21,21,22,22,23,23,24,24,25,25,26,26,27,27,28,28,29,29,30,30],"right_children":[2,4,6,8,10,12,14,16,18,20,22,24,26,28,30,32,34,36,38,40,42,44,46,48,50,52,54,56,58,60,62,-1,-1,-1,-1,-1,-1,-1,-1,-1,-1,-1,-1,-1,-1,-1,-1,-1,-1,-1,-1,-1,-1,-1,-1,-1,-1,-1,-1,-1,-1,-1,-1],"split_conditions":[-1.2361872E2,-8.721038E1,-6.7634094E1,-3.3628872E-1,-6.2504965E-1,-1.5314166E-1,-3.934127E1,-5.331371E-1,-1.4889039E-1,-9.753364E-1,6.610695E1,4.2384195E0,3.5902348E1,1.4214453E2,2.0393114E1,1.4E1,2.9E1,1.6E1,6E0,-6.0439728E1,-6.540345E1,3.238796E1,-5.795791E-1,-4.7012897E1,1.2246469E-16,-7.4499626E1,6.402547E1,4.4E1,-8.5788E1,3.7447366E-1,5.4812588E1,1.7632756E-1,-1.1140814E0,4.382435E-1,1.8623651E0,-9.1993755E-1,-2.6716766E0,-1.3630239E0,-4.3391895E-1,9.748974E-1,3.3346444E-2,-5.493892E-1,1.8085603E-3,1.2728149E-1,5.7347095E-1,9.108164E-1,-1.6828714E-1,1.6731954E-1,-5.177051E-1,7.4604356E-1,1.01323E-1,-4.0225932E-1,-5.159929E-2,-1.2793018E0,2.5142059E-2,7.359554E-2,-1.8149377E-1,-6.111776E-1,2.2399478E-1,6.991837E-2,2.7301362E-1,1.8538761E-1,-2.530386E-1],"split_indices":[1,0,1,10,9,10,0,10,10,9,0,0,0,1,0,4,4,4,4,0,0,0,10,0,11,0,0,7,0,10,1,0,0,0,0,0,0,0,0,0,0,0,0,0,0,0,0,0,0,0,0,0,0,0,0,0,0,0,0,0,0,0,0],"split_type":[0,0,0,0,0,0,0,0,0,0,0,0,0,0,0,0,0,0,0,0,0,0,0,0,0,0,0,0,0,0,0,0,0,0,0,0,0,0,0,0,0,0,0,0,0,0,0,0,0,0,0,0,0,0,0,0,0,0,0,0,0,0,0],"sum_hessian":[1.148318E6,1.7951E5,9.68808E5,2.805E3,1.76705E5,1.7947E5,7.89338E5,5.42E2,2.263E3,6.3885E4,1.1282E5,4.7246E4,1.32224E5,2.22171E5,5.67167E5,2.75E2,2.67E2,2.31E2,2.032E3,1.6512E4,4.7373E4,9.7598E4,1.5222E4,2.4647E4,2.2599E4,9.2645E4,3.9579E4,1.87983E5,3.4188E4,2.61856E5,3.05311E5,1.03E2,1.72E2,2.1E2,5.7E1,1.01E2,1.3E2,3.91E2,1.641E3,2.565E3,1.3947E4,5.869E3,4.1504E4,7.5931E4,2.1667E4,7.85E2,1.4437E4,1.114E4,1.3507E4,1.1468E4,1.1131E4,1.1463E4,8.1182E4,2.0567E4,1.9012E4,2.6178E4,1.61805E5,2.921E3,3.1267E4,1.31269E5,1.30587E5,1.50974E5,1.54337E5],"tree_param":{"num_deleted":"0","num_feature":"13","num_nodes":"63","size_leaf_vector":"1"}},{"base_weights":[-1.70061E-5,-2.6872304E-1,8.663533E-2,4.315203E-1,-1.2284046E0,-2.4704537E-1,3.18671E-1,-3.0752832E-2,8.049942E-1,-4.2485973E-1,-2.2535374E0,-5.388849E-1,7.386667E-2,4.3225697E-1,-9.121086E-1,-1.2937744E-1,1.0600085E0,1.3131436E0,4.2509612E-1,-1.1486025E0,6.5997833E-1,-3.765141E0,-9.352801E-1,-1.3917744E-1,-8.714391E-1,-5.509266E-2,6.469488E-1,1.2776769E0,3.0086604E-1,4.0666467E-1,-1.4547641E0,2.1848977E-3,-2.9441363E-1,-3.3120307E-1,4.3220654E-1,3.2953903E-1,6.871401E-1,5.5753093E-2,2.4090809E-1,1.6265352E-1,-8.54204E-1,-7.580803E-1,4.9920008E-1,-1.564366E0,-1.7475788E-1,-4.9787313E-2,-5.7060206E-1,1.0475275E-1,-1.0107902E-1,-1.364555E-1,-5.732027E-1,5.4904073E-2,-9.399075E-2,8.212396E-2,6.320138E-1,1.5051587E-1,5.9714943E-1,1.2301141E-1,-1.018203E-1,2.0361293E-2,3.049886E-1,-1.0378489E-1,-8.528746E-1],"categories":[],"categories_nodes":[],"categories_segments":[],"categories_sizes":[],"default_left":[0,0,0,0,0,0,0,0,0,0,0,0,0,0,0,0,0,0,0,0,0,0,0,0,0,0,0,0,0,0,0,0,0,0,0,0,0,0,0,0,0,0,0,0,0,0,0,0,0,0,0,0,0,0,0,0,0,0,0,0,0,0,0],"id":15,"left_children":[1,3,5,7,9,11,13,15,17,19,21,23,25,27,29,31,33,35,37,39,41,43,45,47,49,51,53,55,57,59,61,-1,-1,-1,-1,-1,-1,-1,-1,-1,-1,-1,-1,-1,-1,-1,-1,-1,-1,-1,-1,-1,-1,-1,-1,-1,-1,-1,-1,-1,-1,-1,-1],"loss_changes":[2.6737488E4,1.8817158E5,6.722955E4,2.7949664E4,9.7302516E4,3.3355008E4,7.160013E4,7.7827153E3,1.7285656E4,5.199297E4,1.0342666E5,2.4793332E4,1.2536125E4,5.2084055E4,3.0968465E4,7.7251113E3,4.9435566E3,8.034539E3,4.6330166E3,1.1408836E5,8.479703E4,1.1153272E5,2.0620932E4,8.180827E3,4.4077766E4,8.513261E3,1.6974445E4,3.4884203E4,2.836664E4,2.607052E3,4.718787E4,0E0,0E0,0E0,0E0,0E0,0E0,0E0,0E0,0E0,0E0,0E0,0E0,0E0,0E0,0E0,0E0,0E0,0E0,0E0,0E0,0E0,0E0,0E0,0E0,0E0,0E0,0E0,0E0,0E0,0E0,0E0,0E0],"parents":[2147483647,0,0,1,1,2,2,3,3,4,4,5,5,6,6,7,7,8,8,9,9,10,10,11,11,12,12,13,13,14,14,15,15,16,16,17,17,18,18,19,19,20,20,21,21,22,22,23,23,24,24,25,25,26,26,27,27,28,28,29,29,30,30],"right_children":[2,4,6,8,10,12,14,16,18,20,22,24,26,28,30,32,34,36,38,40,42,44,46,48,50,52,54,56,58,60,62,-1,-1,-1,-1,-1,-1,-1,-1,-1,-1,-1,-1,-1,-1,-1,-1,-1,-1,-1,-1,-1,-1,-1,-1,-1,-1,-1,-1,-1,-1,-1,-1],"split_conditions":[7.2E1,1.4118534E1,-1.61164E1,-4.3516903E1,2.24218E1,1.4250833E-1,3.5E2,1.504452E2,-1.8962404E1,-5.9186024E1,4.925481E1,1.32E2,1.1394293E2,-5.331371E-1,1.4814369E1,6.3E1,-8.296572E1,1.1394293E2,4.0689598E1,-1.194601E2,3.238796E1,1.308698E2,1.6E1,-7.4648254E1,-3.7231323E1,-2.8150105E1,-3.0875187E1,-8.420943E0,7.457529E1,5.4812588E1,1.9620218E1,2.1848977E-3,-2.9441363E-1,-3.3120307E-1,4.3220654E-1,3.2953903E-1,6.871401E-1,5.5753093E-2,2.4090809E-1,1.6265352E-1,-8.54204E-1,-7.580803E-1,4.9920008E-1,-1.564366E0,-1.7475788E-1,-4.9787313E-2,-5.7060206E-1,1.0475275E-1,-1.0107902E-1,-1.364555E-1,-5.732027E-1,5.4904073E-2,-9.399075E-2,8.212396E-2,6.320138E-1,1.5051587E-1,5.9714943E-1,1.2301141E-1,-1.018203E-1,2.0361293E-2,3.049886E-1,-1.0378489E-1,-8.528746E-1],"split_indices":[7,0,0,0,1,10,7,1,0,1,0,7,1,10,0,7,0,1,1,1,0,1,4,1,0,1,0,1,0,1,1,0,0,0,0,0,0,0,0,0,0,0,0,0,0,0,0,0,0,0,0,0,0,0,0,0,0,0,0,0,0,0,0],"split_type":[0,0,0,0,0,0,0,0,0,0,0,0,0,0,0,0,0,0,0,0,0,0,0,0,0,0,0,0,0,0,0,0,0,0,0,0,0,0,0,0,0,0,0,0,0,0,0,0,0,0,0,0,0,0,0,0,0,0,0,0,0,0,0],"sum_hessian":[1.148318E6,2.80011E5,8.68307E5,1.61888E5,1.18123E5,3.56147E5,5.1216E5,7.2344E4,8.9544E4,6.6219E4,5.1904E4,1.86522E5,1.69625E5,4.68888E5,4.3272E4,6.6346E4,5.998E3,3.8305E4,5.1239E4,3.972E4,2.6499E4,2.4178E4,2.7726E4,8.4709E4,1.01813E5,1.38467E5,3.1158E4,6.3069E4,4.05819E5,1.2615E4,3.0657E4,5.7176E4,9.17E3,8.97E2,5.101E3,3.1408E4,6.897E3,3.1377E4,1.9862E4,1.9907E4,1.9813E4,6.348E3,2.0151E4,1.6612E4,7.566E3,1.544E4,1.2286E4,2.4415E4,6.0294E4,7.268E4,2.9133E4,7.2038E4,6.6429E4,2.4815E4,6.343E3,3.0198E4,3.2871E4,3.46703E5,5.9116E4,8.111E3,4.504E3,1.7044E4,1.3613E4],"tree_param":{"num_deleted":"0","num_feature":"13","num_nodes":"63","size_leaf_vector":"1"}},{"base_weights":[-1.3641632E-5,-3.6454338E-1,3.7599724E-2,2.4646716E-1,-1.2499946E0,-8.8799536E-2,1.3438559E-1,5.361089E-2,4.4090623E-1,5.7441866E-1,-1.593243E0,-3.4125438E-1,1.5833884E-1,6.249209E-1,-6.3745394E-2,2.8251028E-1,-1.0789891E-1,1.3011655E0,1.9134256E-1,1.1628408E0,-1.3281736E0,-3.7734778E0,-1.2405483E0,3.041422E-2,-5.740788E-1,4.453023E-2,6.668941E-1,-2.3986798E-2,1.2163131E0,2.7209842E-1,-3.4196055E-1,-6.8980224E-2,3.7615E-1,1.0522728E-1,-2.1071146E-1,4.5603737E-1,-3.186146E-1,-4.1884165E-2,2.3868832E-1,-3.859803E-1,4.9927688E-1,-4.1933827E-2,-9.022346E-1,-1.3301073E0,1.0132663E-1,-6.2271017E-3,-5.6681323E-1,1.6334818E-1,-3.256564E-2,-8.007144E-2,-3.1688684E-1,-1.5111618E-1,4.1291103E-2,4.6598548E-1,1.0220559E-2,9.05355E-2,-3.0653748E-1,5.441092E-1,1.8436503E-1,4.3083593E-2,4.5454058E-1,1.23396516E-1,-1.8537627E-1],"categories":[],"categories_nodes":[],"categories_segments":[],"categories_sizes":[],"default_left":[0,0,0,0,0,0,0,0,0,0,0,0,0,0,0,0,0,0,0,0,0,0,0,0,0,0,0,0,0,0,0,0,0,0,0,0,0,0,0,0,0,0,0,0,0,0,0,0,0,0,0,0,0,0,0,0,0,0,0,0,0,0,0],"id":16,"left_children":[1,3,5,7,9,11,13,15,17,19,21,23,25,27,29,31,33,35,37,39,41,43,45,47,49,51,53,55,57,59,61,-1,-1,-1,-1,-1,-1,-1,-1,-1,-1,-1,-1,-1,-1,-1,-1,-1,-1,-1,-1,-1,-1,-1,-1,-1,-1,-1,-1,-1,-1,-1,-1],"loss_changes":[1.5744836E4,5.810856E4,1.2734215E4,2.3830994E3,2.7463477E4,2.8163541E4,5.729515E4,1.179616E3,6.793813E3,7.776663E3,2.837754E4,1.9322867E4,1.3202106E4,6.508747E4,3.923525E4,6.5705747E3,5.1011465E3,3.6837686E3,4.906116E3,6.5176772E3,3.274426E3,1.3950242E4,2.514546E4,6.1443086E3,2.0336059E4,9.51461E3,2.3397492E4,2.6287963E4,3.1897672E4,3.0385572E4,4.7741066E4,0E0,0E0,0E0,0E0,0E0,0E0,0E0,0E0,0E0,0E0,0E0,0E0,0E0,0E0,0E0,0E0,0E0,0E0,0E0,0E0,0E0,0E0,0E0,0E0,0E0,0E0,0E0,0E0,0E0,0E0,0E0,0E0],"parents":[2147483647,0,0,1,1,2,2,3,3,4,4,5,5,6,6,7,7,8,8,9,9,10,10,11,11,12,12,13,13,14,14,15,15,16,16,17,17,18,18,19,19,20,20,21,21,22,22,23,23,24,24,25,25,26,26,27,27,28,28,29,29,30,30],"right_children":[2,4,6,8,10,12,14,16,18,20,22,24,26,28,30,32,34,36,38,40,42,44,46,48,50,52,54,56,58,60,62,-1,-1,-1,-1,-1,-1,-1,-1,-1,-1,-1,-1,-1,-1,-1,-1,-1,-1,-1,-1,-1,-1,-1,-1,-1,-1,-1,-1,-1,-1,-1,-1],"split_conditions":[2E0,1.626055E1,-1.1914453E1,-3.65169E1,-1.2220843E2,2.6037648E-1,-1.6587819E-1,-3.0975538E1,-2.458113E1,2.6E1,-8.0211716E1,1.23E2,1.1394293E2,-8.420943E0,-3.7347654E-1,-8.301407E1,-5.9761757E1,1.504452E2,5.3366013E1,2.8184206E1,5.9798954E1,7.945105E1,9.932056E0,-1.0265407E2,-4.2108604E1,-7.874841E1,1E1,-5.0755924E1,8.576711E1,1.4629666E2,1.5529612E1,-6.8980224E-2,3.7615E-1,1.0522728E-1,-2.1071146E-1,4.5603737E-1,-3.186146E-1,-4.1884165E-2,2.3868832E-1,-3.859803E-1,4.9927688E-1,-4.1933827E-2,-9.022346E-1,-1.3301073E0,1.0132663E-1,-6.2271017E-3,-5.6681323E-1,1.6334818E-1,-3.256564E-2,-8.007144E-2,-3.1688684E-1,-1.5111618E-1,4.1291103E-2,4.6598548E-1,1.0220559E-2,9.05355E-2,-3.0653748E-1,5.441092E-1,1.8436503E-1,4.3083593E-2,4.5454058E-1,1.23396516E-1,-1.8537627E-1],"split_indices":[3,0,0,0,1,10,10,1,0,4,1,7,1,1,9,1,0,1,1,0,0,0,1,1,0,0,5,1,1,1,0,0,0,0,0,0,0,0,0,0,0,0,0,0,0,0,0,0,0,0,0,0,0,0,0,0,0,0,0,0,0,0,0],"split_type":[0,0,0,0,0,0,0,0,0,0,0,0,0,0,0,0,0,0,0,0,0,0,0,0,0,0,0,0,0,0,0,0,0,0,0,0,0,0,0,0,0,0,0,0,0,0,0,0,0,0,0,0,0,0,0,0,0,0,0,0,0,0,0],"sum_hessian":[1.148318E6,1.07404E5,1.040914E6,6.3551E4,4.3853E4,4.514E5,5.89514E5,3.1906E4,3.1645E4,6.944E3,3.6909E4,2.23298E5,2.28102E5,1.69604E5,4.1991E5,1.3199E4,1.8707E4,7.115E3,2.453E4,5.304E3,1.64E3,5.138E3,3.1771E4,8.6005E4,1.37293E5,1.86391E5,4.1711E4,8.087E4,8.8734E4,1.90251E5,2.29659E5,8.641E3,4.558E3,1.056E4,8.147E3,6.512E3,6.03E2,1.585E4,8.68E3,9.01E2,4.403E3,9.61E2,6.79E2,4.427E3,7.11E2,1.1032E4,2.0739E4,1.8301E4,6.7704E4,8.3869E4,5.3424E4,2.7058E4,1.59333E5,1.7374E4,2.4337E4,6.0966E4,1.9904E4,4.4528E4,4.4206E4,1.72429E5,1.7822E4,6.1576E4,1.68083E5],"tree_param":{"num_deleted":"0","num_feature":"13","num_nodes":"63","size_leaf_vector":"1"}},{"base_weights":[-1.0316035E-5,6.845227E-2,-1.7826502E-1,1.3595071E-1,-8.242111E-1,-6.7052925E-1,4.0891534E-1,7.518134E-2,8.349392E-1,-3.6507769E0,-5.982088E-1,-1.1667076E0,4.5952994E-2,-4.4778552E-2,5.634943E-1,-2.0593078E-1,2.4386391E-1,-6.476453E-1,3.4376688E0,-1.1170554E0,-6.484814E0,4.059949E0,-8.5875446E-1,-3.8265088E-1,-2.5194085E0,3.8124695E-1,-1.6610726E0,-5.284909E-1,1.5974196E0,7.504659E-1,-3.8674474E-1,1.2600946E-1,-1.2747416E-1,-4.126604E-2,1.586294E-1,1.78628E-1,-1.5354282E0,1.4629954E0,2.5293117E-2,-1.5360925E-1,-1.4270394E0,-2.4291112E0,-1.0235032E0,2.1827693E0,3.8024522E-2,-1.23850845E-1,-6.786409E-1,-6.4939666E-1,2.6714817E-2,-1.1260035E0,3.6735773E-1,-5.0189603E-2,7.1513164E-1,-1.1063722E0,-1.3434124E-1,1.4221597E-1,-1.7670667E0,8.5386074E-1,3.7657943E-2,8.321454E-2,3.105264E-1,-5.225476E-1,1.341955E-1],"categories":[],"categories_nodes":[],"categories_segments":[],"categories_sizes":[],"default_left":[0,0,0,0,0,0,0,0,0,0,0,0,0,0,0,0,0,0,0,0,0,0,0,0,0,0,0,0,0,0,0,0,0,0,0,0,0,0,0,0,0,0,0,0,0,0,0,0,0,0,0,0,0,0,0,0,0,0,0,0,0,0,0],"id":17,"left_children":[1,3,5,7,9,11,13,15,17,19,21,23,25,27,29,31,33,35,37,39,41,43,45,47,49,51,53,55,57,59,61,-1,-1,-1,-1,-1,-1,-1,-1,-1,-1,-1,-1,-1,-1,-1,-1,-1,-1,-1,-1,-1,-1,-1,-1,-1,-1,-1,-1,-1,-1,-1,-1],"loss_changes":[1.4013841E4,4.9990426E4,9.210595E4,3.2764387E4,3.7256445E4,6.1621516E4,1.0191332E4,3.3650695E4,2.3807269E5,3.0998852E4,6.5550984E4,1.0861769E5,4.0594367E4,2.9336246E4,1.925734E4,3.6480543E4,4.8195223E4,2.1843555E5,1.0804081E5,5.020632E3,1.00698125E4,3.618778E4,3.200716E4,5.449868E4,1.7361116E5,6.5119184E4,2.8632047E4,1.5335139E5,1.5444982E4,1.2194711E4,2.0142477E4,0E0,0E0,0E0,0E0,0E0,0E0,0E0,0E0,0E0,0E0,0E0,0E0,0E0,0E0,0E0,0E0,0E0,0E0,0E0,0E0,0E0,0E0,0E0,0E0,0E0,0E0,0E0,0E0,0E0,0E0,0E0,0E0],"parents":[2147483647,0,0,1,1,2,2,3,3,4,4,5,5,6,6,7,7,8,8,9,9,10,10,11,11,12,12,13,13,14,14,15,15,16,16,17,17,18,18,19,19,20,20,21,21,22,22,23,23,24,24,25,25,26,26,27,27,28,28,29,29,30,30],"right_children":[2,4,6,8,10,12,14,16,18,20,22,24,26,28,30,32,34,36,38,40,42,44,46,48,50,52,54,56,58,60,62,-1,-1,-1,-1,-1,-1,-1,-1,-1,-1,-1,-1,-1,-1,-1,-1,-1,-1,-1,-1,-1,-1,-1,-1,-1,-1,-1,-1,-1,-1,-1,-1],"split_conditions":[8.010366E1,7.735921E1,2.5881904E-1,6.402547E1,2.7E1,1.393376E2,1.0549506E2,9E0,-1.4111258E1,-4.228131E1,4E1,2.3936514E1,6.049142E1,4.925481E1,6.049142E1,-1.1248406E2,-6.903328E1,-5.0755924E1,5.196024E1,2.4E1,3.7893223E1,8E0,8.88701E-1,-6.609347E1,7.386302E1,2.8184206E1,7.172365E1,2.7486237E1,2.44E2,-3.369533E1,7.172365E1,1.2600946E-1,-1.2747416E-1,-4.126604E-2,1.586294E-1,1.78628E-1,-1.5354282E0,1.4629954E0,2.5293117E-2,-1.5360925E-1,-1.4270394E0,-2.4291112E0,-1.0235032E0,2.1827693E0,3.8024522E-2,-1.23850845E-1,-6.786409E-1,-6.4939666E-1,2.6714817E-2,-1.1260035E0,3.6735773E-1,-5.0189603E-2,7.1513164E-1,-1.1063722E0,-1.3434124E-1,1.4221597E-1,-1.7670667E0,8.5386074E-1,3.7657943E-2,8.321454E-2,3.105264E-1,-5.225476E-1,1.341955E-1],"split_indices":[1,0,11,0,7,1,1,5,1,1,7,0,0,0,0,1,1,1,1,4,1,4,9,0,0,0,0,0,7,0,0,0,0,0,0,0,0,0,0,0,0,0,0,0,0,0,0,0,0,0,0,0,0,0,0,0,0,0,0,0,0,0,0],"split_type":[0,0,0,0,0,0,0,0,0,0,0,0,0,0,0,0,0,0,0,0,0,0,0,0,0,0,0,0,0,0,0,0,0,0,0,0,0,0,0,0,0,0,0,0,0,0,0,0,0,0,0,0,0,0,0,0,0,0,0,0,0,0,0],"sum_hessian":[1.148318E6,8.29667E5,3.18651E5,7.71343E5,5.8324E4,1.73335E5,1.45316E5,7.09648E5,6.1695E4,4.317E3,5.4007E4,1.02412E5,7.0923E4,3.6929E4,1.08387E5,2.66133E5,4.43515E5,3.9306E4,2.2389E4,2.28E3,2.037E3,2.86E3,5.1147E4,6.4834E4,3.7578E4,5.928E4,1.1643E4,2.8527E4,8.402E3,9.0567E4,1.782E4,6.8973E4,1.9716E5,1.89636E5,2.53879E5,3.0755E4,8.551E3,1.5666E4,6.723E3,1.956E3,3.24E2,1.335E3,7.02E2,1.573E3,1.287E3,3.8815E4,1.2332E4,1.3569E4,5.1265E4,2.8263E4,9.315E3,4.6534E4,1.2746E4,4.359E3,7.284E3,2.4034E4,4.493E3,4.545E3,3.857E3,3.4021E4,5.6546E4,6.789E3,1.1031E4],"tree_param":{"num_deleted":"0","num_feature":"13","num_nodes":"63","size_leaf_vector":"1"}},{"base_weights":[-1.2406337E-5,2.5669912E-1,-2.7820677E-2,5.187045E-2,7.267974E-1,2.1472275E-1,-8.2023576E-2,-9.653172E-1,1.2535313E-1,4.0865353E-1,1.339572E0,-2.7534202E-1,8.220577E-1,-1.1617995E-1,5.3977597E-1,2.2899605E-1,-2.3188682E0,4.1854733E-1,-1.9873887E-1,-1.6708043E0,4.6884668E-1,1.830022E0,-1.6811258E-1,5.8616906E-1,-5.2483815E-1,1.4905533E0,2.9673677E-2,3.8120683E-2,-3.451675E-1,-4.1918796E-2,1.7825676E0,-3.020901E-1,8.275511E-1,-1.0439992E0,2.0215455E-1,2.2288281E-2,3.1135502E-1,1.5481818E-1,-9.601634E-2,-5.680981E-1,3.8200748E-1,8.709238E-1,1.1823224E-1,6.78343E-1,1.321442E-1,4.2211565E-1,-5.56847E-1,-8.851153E-2,4.2343917E-1,8.9036465E-2,-2.0273183E-1,-4.70934E-1,5.3936857E-1,4.3395665E-1,-6.6134416E-2,-1.4350456E-1,4.034973E-2,-1.6160108E-2,-3.1472623E-1,-1.1342453E0,3.523328E-2,1.3773632E0,-3.9566734E-1],"categories":[],"categories_nodes":[],"categories_segments":[],"categories_sizes":[],"default_left":[0,0,0,0,0,0,0,0,0,0,0,0,0,0,0,0,0,0,0,0,0,0,0,0,0,0,0,0,0,0,0,0,0,0,0,0,0,0,0,0,0,0,0,0,0,0,0,0,0,0,0,0,0,0,0,0,0,0,0,0,0,0,0],"id":18,"left_children":[1,3,5,7,9,11,13,15,17,19,21,23,25,27,29,31,33,35,37,39,41,43,45,47,49,51,53,55,57,59,61,-1,-1,-1,-1,-1,-1,-1,-1,-1,-1,-1,-1,-1,-1,-1,-1,-1,-1,-1,-1,-1,-1,-1,-1,-1,-1,-1,-1,-1,-1,-1,-1],"loss_changes":[8.197516E3,1.0806928E4,1.362098E4,5.84329E3,6.63966E3,5.632706E4,1.7985562E4,8.514973E3,6.92794E3,2.8073257E3,8.607436E3,2.2512867E4,4.4766934E4,2.8363266E4,3.1878191E4,8.753509E3,8.581948E3,8.1608857E3,3.0031504E3,4.164259E2,3.9635312E3,5.2605527E3,7.601883E3,1.7106203E4,1.007207E4,4.3118492E4,1.3705788E4,2.3872018E4,6.626481E4,1.7898354E4,1.2247242E5,0E0,0E0,0E0,0E0,0E0,0E0,0E0,0E0,0E0,0E0,0E0,0E0,0E0,0E0,0E0,0E0,0E0,0E0,0E0,0E0,0E0,0E0,0E0,0E0,0E0,0E0,0E0,0E0,0E0,0E0,0E0,0E0],"parents":[2147483647,0,0,1,1,2,2,3,3,4,4,5,5,6,6,7,7,8,8,9,9,10,10,11,11,12,12,13,13,14,14,15,15,16,16,17,17,18,18,19,19,20,20,21,21,22,22,23,23,24,24,25,25,26,26,27,27,28,28,29,29,30,30],"right_children":[2,4,6,8,10,12,14,16,18,20,22,24,26,28,30,32,34,36,38,40,42,44,46,48,50,52,54,56,58,60,62,-1,-1,-1,-1,-1,-1,-1,-1,-1,-1,-1,-1,-1,-1,-1,-1,-1,-1,-1,-1,-1,-1,-1,-1,-1,-1,-1,-1,-1,-1,-1,-1],"split_conditions":[-1.4471295E2,7.3866796E-1,-3.4841082E-1,-7.806786E1,2.8184206E1,9.871745E0,1.631066E2,-8.3641556E1,1.0590655E1,-8.6491646E1,2.5E1,-6.7481125E1,5.350669E1,1.7634434E1,3.238796E1,-8.5788E1,2.71E2,-2.1084171E1,7E1,6.216869E-1,-8.296572E1,9.8133194E-1,5.9798954E1,-5.367705E-1,-9.423626E1,-1.1526359E2,-9.564181E1,-7.3075745E1,7.301797E1,-8.507051E1,6.265174E1,-3.020901E-1,8.275511E-1,-1.0439992E0,2.0215455E-1,2.2288281E-2,3.1135502E-1,1.5481818E-1,-9.601634E-2,-5.680981E-1,3.8200748E-1,8.709238E-1,1.1823224E-1,6.78343E-1,1.321442E-1,4.2211565E-1,-5.56847E-1,-8.851153E-2,4.2343917E-1,8.9036465E-2,-2.0273183E-1,-4.70934E-1,5.3936857E-1,4.3395665E-1,-6.6134416E-2,-1.4350456E-1,4.034973E-2,-1.6160108E-2,-3.1472623E-1,-1.1342453E0,3.523328E-2,1.3773632E0,-3.9566734E-1],"split_indices":[1,10,10,0,0,0,1,0,0,0,4,0,0,0,0,0,7,0,7,9,0,10,0,10,1,1,1,0,1,0,0,0,0,0,0,0,0,0,0,0,0,0,0,0,0,0,0,0,0,0,0,0,0,0,0,0,0,0,0,0,0,0,0],"split_type":[0,0,0,0,0,0,0,0,0,0,0,0,0,0,0,0,0,0,0,0,0,0,0,0,0,0,0,0,0,0,0,0,0,0,0,0,0,0,0,0,0,0,0,0,0,0,0,0,0,0,0,0,0,0,0,0,0,0,0,0,0,0,0],"sum_hessian":[1.148318E6,1.12233E5,1.036085E6,7.8173E4,3.406E4,1.89248E5,8.46837E5,5.266E3,7.2907E4,2.2421E4,1.1639E4,1.04736E5,8.4512E4,8.02742E5,4.4095E4,2.798E3,2.468E3,3.8278E4,3.4629E4,6.3E2,2.1791E4,8.782E3,2.857E3,2.352E4,8.1216E4,4.5839E4,3.8673E4,4.79582E5,3.2316E5,3.0037E4,1.4058E4,1.88E3,9.18E2,1.778E3,6.9E2,2.4603E4,1.3675E4,5.024E3,2.9605E4,5.86E2,4.4E1,6.48E2,2.1143E4,6.702E3,2.08E3,1.478E3,1.379E3,1.1375E4,1.2145E4,1.2604E4,6.8612E4,4.183E3,4.1656E4,5.802E3,3.2871E4,7.542E4,4.04162E5,2.28572E5,9.4588E4,1.227E3,2.881E4,7.377E3,6.681E3],"tree_param":{"num_deleted":"0","num_feature":"13","num_nodes":"63","size_leaf_vector":"1"}},{"base_weights":[-7.1922236E-6,3.7862077E-2,-1.3943513E-1,-9.690934E-2,1.7470302E-1,1.5395495E-1,-5.351241E-1,1.2798387E-1,-2.6651445E-1,-1.08890906E-1,4.1497225E-1,1.9636348E-2,3.1883633E-1,-7.4900436E-1,1.7567463E0,6.4083374E-1,-1.1388891E-2,-6.5530635E-2,-5.458261E-1,-4.6012264E-1,1.4410542E-1,6.516374E-1,8.373435E-2,1.6678388E-1,-7.059272E-1,-5.1771797E-2,7.090848E-1,-3.7725627E-2,-1.7884194E0,3.4169352E0,-1.0618367E0,-4.6161804E-1,2.241217E-1,-8.222731E-2,7.3012024E-2,-7.982973E-2,6.5122075E-2,-2.7779606E-1,-4.0797E-3,-2.9355764E-1,-5.15539E-3,3.4591627E-1,-4.9070667E-2,-6.585909E-2,2.68705E-1,-1.1355024E-1,1.307796E-1,1.4364131E-1,-4.311237E-2,-3.1387845E-1,2.5678772E-1,-1.17303856E-1,8.841103E-2,4.2922437E-1,-8.635185E-3,7.098294E-2,-4.6451753E-1,-9.349553E-1,-4.9191013E-2,3.927127E-1,2.347088E0,2.0584522E-1,-1.216087E0],"categories":[],"categories_nodes":[],"categories_segments":[],"categories_sizes":[],"default_left":[0,0,0,0,0,0,0,0,0,0,0,0,0,0,0,0,0,0,0,0,0,0,0,0,0,0,0,0,0,0,0,0,0,0,0,0,0,0,0,0,0,0,0,0,0,0,0,0,0,0,0,0,0,0,0,0,0,0,0,0,0,0,0],"id":19,"left_children":[1,3,5,7,9,11,13,15,17,19,21,23,25,27,29,31,33,35,37,39,41,43,45,47,49,51,53,55,57,59,61,-1,-1,-1,-1,-1,-1,-1,-1,-1,-1,-1,-1,-1,-1,-1,-1,-1,-1,-1,-1,-1,-1,-1,-1,-1,-1,-1,-1,-1,-1,-1,-1],"loss_changes":[6.063169E3,1.6654252E4,2.8474008E4,1.7353781E4,3.0531996E4,3.1191929E3,5.1191418E4,1.3981111E4,1.455991E4,1.826211E4,1.9015684E4,8.286781E3,9.144655E3,7.061697E4,4.1715625E4,9.679619E3,1.0293713E4,8.549439E3,2.1959672E4,1.9759043E4,3.7085117E4,3.0080172E4,1.6457264E4,6.251721E3,6.9574653E3,3.8120103E3,1.639975E4,2.3503062E4,8.372279E4,5.210012E4,1.7286627E4,0E0,0E0,0E0,0E0,0E0,0E0,0E0,0E0,0E0,0E0,0E0,0E0,0E0,0E0,0E0,0E0,0E0,0E0,0E0,0E0,0E0,0E0,0E0,0E0,0E0,0E0,0E0,0E0,0E0,0E0,0E0,0E0],"parents":[2147483647,0,0,1,1,2,2,3,3,4,4,5,5,6,6,7,7,8,8,9,9,10,10,11,11,12,12,13,13,14,14,15,15,16,16,17,17,18,18,19,19,20,20,21,21,22,22,23,23,24,24,25,25,26,26,27,27,28,28,29,29,30,30],"right_children":[2,4,6,8,10,12,14,16,18,20,22,24,26,28,30,32,34,36,38,40,42,44,46,48,50,52,54,56,58,60,62,-1,-1,-1,-1,-1,-1,-1,-1,-1,-1,-1,-1,-1,-1,-1,-1,-1,-1,-1,-1,-1,-1,-1,-1,-1,-1,-1,-1,-1,-1,-1,-1],"split_conditions":[8.6114675E-1,7.279726E-1,1.3413882E1,1.22E2,1.28E2,1.8208172E1,1.4907532E2,-1.0265407E2,-3.7231323E1,-2.9542337E1,5.2805344E1,-1.555044E1,-3.65169E1,1.5409407E1,6.1943535E1,-8.5788E1,3.647617E1,-5.905169E1,3.0912243E1,-1.8369701E-16,1.9620218E1,-1.0122949E2,1.5E1,1.2246469E-16,-5.545868E0,1.2246469E-16,-1.12089815E1,7.8055466E1,5.5566143E1,4.6452435E1,2.2E1,-4.6161804E-1,2.241217E-1,-8.222731E-2,7.3012024E-2,-7.982973E-2,6.5122075E-2,-2.7779606E-1,-4.0797E-3,-2.9355764E-1,-5.15539E-3,3.4591627E-1,-4.9070667E-2,-6.585909E-2,2.68705E-1,-1.1355024E-1,1.307796E-1,1.4364131E-1,-4.311237E-2,-3.1387845E-1,2.5678772E-1,-1.17303856E-1,8.841103E-2,4.2922437E-1,-8.635185E-3,7.098294E-2,-4.6451753E-1,-9.349553E-1,-4.9191013E-2,3.927127E-1,2.347088E0,2.0584522E-1,-1.216087E0],"split_indices":[10,0,0,7,7,1,1,1,0,1,0,1,0,1,0,0,1,0,1,12,1,1,4,11,0,11,0,0,0,0,4,0,0,0,0,0,0,0,0,0,0,0,0,0,0,0,0,0,0,0,0,0,0,0,0,0,0,0,0,0,0,0,0],"split_type":[0,0,0,0,0,0,0,0,0,0,0,0,0,0,0,0,0,0,0,0,0,0,0,0,0,0,0,0,0,0,0,0,0,0,0,0,0,0,0,0,0,0,0,0,0,0,0,0,0,0,0,0,0,0,0,0,0,0,0,0,0,0,0],"sum_hessian":[1.148318E6,9.03047E5,2.45271E5,4.54964E5,4.48083E5,1.40842E5,1.04429E5,1.95601E5,2.59363E5,2.05513E5,2.4257E5,7.7615E4,6.3227E4,9.5516E4,8.913E3,4.1797E4,1.53804E5,1.50831E5,1.08532E5,8.605E4,1.19463E5,1.41482E5,1.01088E5,6.4529E4,1.3086E4,3.243E4,3.0797E4,5.671E4,3.8806E4,5.609E3,3.304E3,1.942E3,3.9855E4,7.5722E4,7.8082E4,8.822E4,6.2611E4,6.331E4,4.5222E4,3.9647E4,4.6403E4,2.7916E4,9.1547E4,3.0961E4,1.10521E5,4.3715E4,5.7373E4,3.2185E4,3.2344E4,1.0745E4,2.341E3,1.6386E4,1.6044E4,1.5569E4,1.5228E4,4.7995E4,8.715E3,2.135E4,1.7456E4,3.795E3,1.814E3,2.086E3,1.218E3],"tree_param":{"num_deleted":"0","num_feature":"13","num_nodes":"63","size_leaf_vector":"1"}},{"base_weights":[-4.6433256E-6,2.5094467E-1,-1.7852433E-2,-4.9122685E-1,3.7646067E-1,-1.519602E-1,3.228492E-2,-2.7952714E0,5.633936E-2,2.6322386E-1,9.50695E-1,-3.6531365E-1,3.6791736E-1,1.6650683E-1,-2.9182574E-1,1.703825E0,-4.9193788E0,-1.7177805E0,4.659323E-1,4.8427686E-1,-1.7716043E-1,-5.525274E-1,1.0754762E0,-4.7681084E-1,6.2538505E-1,6.965916E-2,9.3876433E-1,-1.5492608E-1,2.6556754E-1,4.480981E-1,-5.8924246E-1,1.269334E0,1.7914807E-2,-8.421892E-1,-1.7423309E0,-7.607841E-1,8.520984E-2,4.8616704E-1,-1.9582469E-2,3.088653E-1,1.02198854E-1,-1.4285402E-2,-6.3658917E-1,-5.382194E-1,1.0229356E-1,3.928723E-1,1.1407286E-1,-7.828124E-2,-3.9469308E-1,-2.3113288E-2,2.8065658E-1,1.625268E-1,-1.268402E-1,4.9687648E-1,-3.7651103E-2,-1.280874E-1,1.5150918E-1,1.03242055E-1,-7.916774E-2,2.357572E-1,-6.29402E-1,-2.2722381E-1,2.3205529E-1],"categories":[],"categories_nodes":[],"categories_segments":[],"categories_sizes":[],"default_left":[0,0,0,0,0,0,0,0,0,0,0,0,0,0,0,0,0,0,0,0,0,0,0,0,0,0,0,0,0,0,0,0,0,0,0,0,0,0,0,0,0,0,0,0,0,0,0,0,0,0,0,0,0,0,0,0,0,0,0,0,0,0,0],"id":20,"left_children":[1,3,5,7,9,11,13,15,17,19,21,23,25,27,29,31,33,35,37,39,41,43,45,47,49,51,53,55,57,59,61,-1,-1,-1,-1,-1,-1,-1,-1,-1,-1,-1,-1,-1,-1,-1,-1,-1,-1,-1,-1,-1,-1,-1,-1,-1,-1,-1,-1,-1,-1,-1,-1],"loss_changes":[5.1431997E3,7.1029272E3,7.208418E3,1.3915792E4,4.2405156E3,3.2358812E4,3.39469E4,2.0249184E4,6.477583E3,5.303327E3,2.0155127E3,2.2848756E4,1.4453117E4,1.7570684E4,5.02899E4,2.8252402E3,2.6837656E3,2.7391494E3,4.441949E3,2.839995E3,4.5868706E3,9.146921E2,1.6138477E3,3.3667082E4,4.5585674E3,1.2963335E4,2.2245473E4,2.3338842E4,1.7548256E4,5.6346902E4,3.735667E4,0E0,0E0,0E0,0E0,0E0,0E0,0E0,0E0,0E0,0E0,0E0,0E0,0E0,0E0,0E0,0E0,0E0,0E0,0E0,0E0,0E0,0E0,0E0,0E0,0E0,0E0,0E0,0E0,0E0,0E0,0E0,0E0],"parents":[2147483647,0,0,1,1,2,2,3,3,4,4,5,5,6,6,7,7,8,8,9,9,10,10,11,11,12,12,13,13,14,14,15,15,16,16,17,17,18,18,19,19,20,20,21,21,22,22,23,23,24,24,25,25,26,26,27,27,28,28,29,29,30,30],"right_children":[2,4,6,8,10,12,14,16,18,20,22,24,26,28,30,32,34,36,38,40,42,44,46,48,50,52,54,56,58,60,62,-1,-1,-1,-1,-1,-1,-1,-1,-1,-1,-1,-1,-1,-1,-1,-1,-1,-1,-1,-1,-1,-1,-1,-1,-1,-1,-1,-1,-1,-1,-1,-1],"split_conditions":[-1.5612871E2,-6.3955135E1,-6.483534E1,-3.3628872E-1,3.24E2,1.7E1,1.7E1,-8.225846E1,-8.507051E1,3.8693893E1,-5.19799E1,7.172365E1,2.8184206E1,4E0,5.5500426E0,1.31E2,-6.0384524E-1,-1.6314694E2,1.1E1,-4.2108604E1,3.1E2,3.42E2,3.56E2,3.8693893E1,-1.2784087E2,-2.9481499E1,5.8133006E-1,1.0832587E2,6.679553E1,6.8892494E1,7.0316284E1,1.269334E0,1.7914807E-2,-8.421892E-1,-1.7423309E0,-7.607841E-1,8.520984E-2,4.8616704E-1,-1.9582469E-2,3.088653E-1,1.02198854E-1,-1.4285402E-2,-6.3658917E-1,-5.382194E-1,1.0229356E-1,3.928723E-1,1.1407286E-1,-7.828124E-2,-3.9469308E-1,-2.3113288E-2,2.8065658E-1,1.625268E-1,-1.268402E-1,4.9687648E-1,-3.7651103E-2,-1.280874E-1,1.5150918E-1,1.03242055E-1,-7.916774E-2,2.357572E-1,-6.29402E-1,-2.2722381E-1,2.3205529E-1],"split_indices":[1,0,1,10,7,5,5,0,0,0,0,0,0,5,1,7,10,1,4,0,7,7,7,0,1,0,10,1,0,0,0,0,0,0,0,0,0,0,0,0,0,0,0,0,0,0,0,0,0,0,0,0,0,0,0,0,0,0,0,0,0,0,0],"split_type":[0,0,0,0,0,0,0,0,0,0,0,0,0,0,0,0,0,0,0,0,0,0,0,0,0,0,0,0,0,0,0,0,0,0,0,0,0,0,0,0,0,0,0,0,0,0,0,0,0,0,0,0,0,0,0,0,0,0,0,0,0,0,0],"sum_hessian":[1.148318E6,7.6246E4,1.072072E6,1.1029E4,6.5217E4,2.91735E5,7.80337E5,2.117E3,8.912E3,5.4476E4,1.0741E4,2.06847E5,8.4888E4,5.51817E5,2.2852E5,6.79E2,1.438E3,1.671E3,7.241E3,3.627E4,1.8206E4,8.23E2,9.918E3,1.85923E5,2.0924E4,5.5757E4,2.9131E4,1.29998E5,4.21819E5,6.5519E4,1.63001E5,2.67E2,4.12E2,4.27E2,1.011E3,1.186E3,4.85E2,2.281E3,4.96E3,7.56E3,2.871E4,1.707E4,1.136E3,3.44E2,4.79E2,7.419E3,2.499E3,1.4787E5,3.8053E4,6.409E3,1.4515E4,2.8467E4,2.729E4,1.74E4,1.1731E4,9.2054E4,3.7944E4,3.6731E5,5.4509E4,5.7846E4,7.673E3,1.45096E5,1.7905E4],"tree_param":{"num_deleted":"0","num_feature":"13","num_nodes":"63","size_leaf_vector":"1"}},{"base_weights":[-4.816177E-6,4.1171998E-2,-1.1375999E-1,7.727715E-2,-5.816112E-1,3.2579303E-1,-3.7660468E-1,-5.7875942E-2,2.3652749E-1,1.0189528E0,-9.089529E-1,4.92725E-1,-2.9022694E-3,-4.7658497E-1,1.0191003E0,2.2841038E-1,-1.6703144E-1,-6.204298E-2,6.3331985E-1,-6.103981E-1,2.5591702E0,-2.1884544E0,-4.0638304E-1,-7.3364377E-3,8.268998E-1,-3.0211115E-1,5.0283813E-1,-1.7683496E-1,-1.1580554E0,-6.630334E-1,1.9370228E0,1.6950497E-2,1.8640883E-1,-9.162749E-2,7.4164905E-2,8.0251426E-2,-1.8868674E-1,5.085463E-1,-2.6225578E-4,2.802653E-1,-4.6537447E-1,3.18923E-1,1.7725815E0,-4.2053692E-2,-1.4057829E0,-1.4243999E-2,-5.342985E-1,-1.5987091E-1,4.0091035E-1,3.1172708E-2,3.4699443E-1,7.753661E-2,-2.5187236E-1,4.0304774E-1,-1.6277555E-1,-2.6247865E-1,-5.133805E-3,-6.2021613E-1,3.8537394E-2,-5.032521E-4,-1.7406148E0,8.197874E-1,1.4340846E-1],"categories":[],"categories_nodes":[],"categories_segments":[],"categories_sizes":[],"default_left":[0,0,0,0,0,0,0,0,0,0,0,0,0,0,0,0,0,0,0,0,0,0,0,0,0,0,0,0,0,0,0,0,0,0,0,0,0,0,0,0,0,0,0,0,0,0,0,0,0,0,0,0,0,0,0,0,0,0,0,0,0,0,0],"id":21,"left_children":[1,3,5,7,9,11,13,15,17,19,21,23,25,27,29,31,33,35,37,39,41,43,45,47,49,51,53,55,57,59,61,-1,-1,-1,-1,-1,-1,-1,-1,-1,-1,-1,-1,-1,-1,-1,-1,-1,-1,-1,-1,-1,-1,-1,-1,-1,-1,-1,-1,-1,-1,-1,-1],"loss_changes":[5.3788174E3,1.8958328E4,3.5260344E4,1.7152414E4,2.420708E4,6.2665117E3,2.665138E4,1.3471139E4,4.334235E4,1.968902E4,2.4664154E4,1.2656928E4,5.8210557E3,3.6405137E4,1.9714404E4,8.0381724E3,1.7891777E4,3.900247E4,1.05783125E5,5.5426987E3,2.0203348E4,5.5334188E4,1.358733E4,2.142771E4,1.0823699E4,7.2819487E3,1.2567254E4,1.3801371E4,6.369253E4,1.5321414E4,9.586729E3,0E0,0E0,0E0,0E0,0E0,0E0,0E0,0E0,0E0,0E0,0E0,0E0,0E0,0E0,0E0,0E0,0E0,0E0,0E0,0E0,0E0,0E0,0E0,0E0,0E0,0E0,0E0,0E0,0E0,0E0,0E0,0E0],"parents":[2147483647,0,0,1,1,2,2,3,3,4,4,5,5,6,6,7,7,8,8,9,9,10,10,11,11,12,12,13,13,14,14,15,15,16,16,17,17,18,18,19,19,20,20,21,21,22,22,23,23,24,24,25,25,26,26,27,27,28,28,29,29,30,30],"right_children":[2,4,6,8,10,12,14,16,18,20,22,24,26,28,30,32,34,36,38,40,42,44,46,48,50,52,54,56,58,60,62,-1,-1,-1,-1,-1,-1,-1,-1,-1,-1,-1,-1,-1,-1,-1,-1,-1,-1,-1,-1,-1,-1,-1,-1,-1,-1,-1,-1,-1,-1,-1,-1],"split_conditions":[8.4341736E1,8.0158875E1,9E0,2.1467588E0,6E0,1.4768137E2,7.8055466E1,-1.0687246E2,-2.9542337E1,4.7937766E-1,8.5E1,1.0970637E2,2.2501179E1,2.6763792E1,-6.515304E-1,-2.599052E1,3.647617E1,5.1402733E1,-2.5881904E-1,-7.8804825E1,5.3767735E-1,-3.522743E1,3.29E2,3.9401253E1,-3.369533E1,-3.5118946E1,6.049142E1,-6.816155E1,1.4074861E2,3.13E2,1.4490454E2,1.6950497E-2,1.8640883E-1,-9.162749E-2,7.4164905E-2,8.0251426E-2,-1.8868674E-1,5.085463E-1,-2.6225578E-4,2.802653E-1,-4.6537447E-1,3.18923E-1,1.7725815E0,-4.2053692E-2,-1.4057829E0,-1.4243999E-2,-5.342985E-1,-1.5987091E-1,4.0091035E-1,3.1172708E-2,3.4699443E-1,7.753661E-2,-2.5187236E-1,4.0304774E-1,-1.6277555E-1,-2.6247865E-1,-5.133805E-3,-6.2021613E-1,3.8537394E-2,-5.032521E-4,-1.7406148E0,8.197874E-1,1.4340846E-1],"split_indices":[1,0,5,0,4,1,0,1,1,10,7,1,0,0,9,0,1,0,12,1,9,1,7,0,0,0,0,0,1,7,1,0,0,0,0,0,0,0,0,0,0,0,0,0,0,0,0,0,0,0,0,0,0,0,0,0,0,0,0,0,0,0,0],"split_type":[0,0,0,0,0,0,0,0,0,0,0,0,0,0,0,0,0,0,0,0,0,0,0,0,0,0,0,0,0,0,0,0,0,0,0,0,0,0,0,0,0,0,0,0,0,0,0,0,0,0,0,0,0,0,0,0,0,0,0,0,0,0,0],"sum_hessian":[1.148318E6,8.43126E5,3.05192E5,7.96926E5,4.62E4,1.14206E5,1.90986E5,4.31078E5,3.65848E5,7.844E3,3.8356E4,7.574E4,3.8466E4,1.7822E5,1.2766E4,1.18992E5,3.12086E5,2.08763E5,1.57085E5,3.812E3,4.032E3,1.0816E4,2.754E4,3.034E4,4.54E4,2.4168E4,1.4298E4,1.23777E5,5.4443E4,4.507E3,8.259E3,8.2779E4,3.6213E4,2.33933E5,7.8153E4,1.3202E5,7.6743E4,5.8738E4,9.8347E4,1.443E3,2.369E3,2.788E3,1.244E3,5.943E3,4.873E3,2.1839E4,5.701E3,2.181E4,8.53E3,1.4221E4,3.1179E4,1.183E4,1.2338E4,7.925E3,6.373E3,2.3046E4,1.00731E5,3.1897E4,2.2546E4,3.994E3,5.13E2,5.344E3,2.915E3],"tree_param":{"num_deleted":"0","num_feature":"13","num_nodes":"63","size_leaf_vector":"1"}},{"base_weights":[-3.8777994E-6,-3.667376E-2,1.2509385E-1,1.140567E-1,-1.5043628E-1,-2.841606E-1,4.2774895E-1,-5.7660185E-2,6.169469E-1,-3.8861655E-2,-8.295106E-1,4.186578E-1,-9.040823E-1,-7.818865E-1,5.900701E-1,2.0855883E-1,-2.4143028E-1,3.560127E-1,2.0593932E0,-6.2596154E-1,1.1199067E-1,7.920559E-1,-1.6201959E0,6.934316E-1,-3.6179093E-1,-3.345875E-1,-1.5847166E0,-1.5000845E0,1.07855365E-1,9.0023375E-1,-1.1140868E-1,2.2763956E-2,2.3931526E-1,-2.3930492E-1,-2.24429E-2,2.78569E-1,-6.5365E-2,9.011106E-1,6.662797E-2,1.5416117E-1,-2.7773544E-1,8.851785E-2,-5.723402E-2,4.2093578E-1,-6.994097E-2,1.989756E-1,-7.728806E-1,8.27993E-2,4.1823307E-1,4.4636688E-1,-2.41688E-1,2.043713E-1,-7.69351E-1,-1.1822413E0,-2.5336415E-1,-1.8365858E-1,-6.118522E-1,3.4879005E-1,-5.6672597E-1,3.594024E-1,-2.1181732E-1,2.558096E-1,-1.347725E-1],"categories":[],"categories_nodes":[],"categories_segments":[],"categories_sizes":[],"default_left":[0,0,0,0,0,0,0,0,0,0,0,0,0,0,0,0,0,0,0,0,0,0,0,0,0,0,0,0,0,0,0,0,0,0,0,0,0,0,0,0,0,0,0,0,0,0,0,0,0,0,0,0,0,0,0,0,0,0,0,0,0,0,0],"id":22,"left_children":[1,3,5,7,9,11,13,15,17,19,21,23,25,27,29,31,33,35,37,39,41,43,45,47,49,51,53,55,57,59,61,-1,-1,-1,-1,-1,-1,-1,-1,-1,-1,-1,-1,-1,-1,-1,-1,-1,-1,-1,-1,-1,-1,-1,-1,-1,-1,-1,-1,-1,-1,-1,-1],"loss_changes":[5.26771E3,1.5227252E4,3.2242145E4,3.2983223E4,3.8343383E4,4.8215836E4,2.9382389E4,1.3929825E4,3.65924E4,3.8495277E4,9.156594E4,1.1122536E4,2.279139E4,1.1313851E4,2.8706055E4,9.089429E3,1.5612327E4,2.7052895E4,2.5838367E4,3.036548E4,1.916713E4,1.4665069E4,1.0480783E5,1.1219418E4,1.1089008E4,7.2522266E4,4.6708883E4,4.691002E3,1.6661164E4,4.375972E4,1.3175891E4,0E0,0E0,0E0,0E0,0E0,0E0,0E0,0E0,0E0,0E0,0E0,0E0,0E0,0E0,0E0,0E0,0E0,0E0,0E0,0E0,0E0,0E0,0E0,0E0,0E0,0E0,0E0,0E0,0E0,0E0,0E0,0E0],"parents":[2147483647,0,0,1,1,2,2,3,3,4,4,5,5,6,6,7,7,8,8,9,9,10,10,11,11,12,12,13,13,14,14,15,15,16,16,17,17,18,18,19,19,20,20,21,21,22,22,23,23,24,24,25,25,26,26,27,27,28,28,29,29,30,30],"right_children":[2,4,6,8,10,12,14,16,18,20,22,24,26,28,30,32,34,36,38,40,42,44,46,48,50,52,54,56,58,60,62,-1,-1,-1,-1,-1,-1,-1,-1,-1,-1,-1,-1,-1,-1,-1,-1,-1,-1,-1,-1,-1,-1,-1,-1,-1,-1,-1,-1,-1,-1,-1,-1],"split_conditions":[4.925481E1,-2.538348E1,-2.674676E1,-6.483534E1,2.9598936E1,-1.0828314E2,-9.5785236E-1,-3.299054E1,2.8184206E1,1.6794748E1,1.0751513E-3,2.98E2,1.5420404E-1,7.172365E1,1.16774254E2,-8.58195E1,-1.399613E1,1.2246469E-16,4.2205265E1,-6.540345E1,1.5E1,5E-1,3.5129234E1,5E-1,5.6999252E1,-5.2170628E1,5.910804E1,5.0523113E1,8.368884E1,8.368884E1,5.9798954E1,2.2763956E-2,2.3931526E-1,-2.3930492E-1,-2.24429E-2,2.78569E-1,-6.5365E-2,9.011106E-1,6.662797E-2,1.5416117E-1,-2.7773544E-1,8.851785E-2,-5.723402E-2,4.2093578E-1,-6.994097E-2,1.989756E-1,-7.728806E-1,8.27993E-2,4.1823307E-1,4.4636688E-1,-2.41688E-1,2.043713E-1,-7.69351E-1,-1.1822413E0,-2.5336415E-1,-1.8365858E-1,-6.118522E-1,3.4879005E-1,-5.6672597E-1,3.594024E-1,-2.1181732E-1,2.558096E-1,-1.347725E-1],"split_indices":[0,1,1,1,0,1,9,0,0,1,10,7,9,0,1,1,0,11,0,0,5,12,1,12,0,1,0,1,0,0,0,0,0,0,0,0,0,0,0,0,0,0,0,0,0,0,0,0,0,0,0,0,0,0,0,0,0,0,0,0,0,0,0],"split_type":[0,0,0,0,0,0,0,0,0,0,0,0,0,0,0,0,0,0,0,0,0,0,0,0,0,0,0,0,0,0,0,0,0,0,0,0,0,0,0,0,0,0,0,0,0,0,0,0,0,0,0,0,0,0,0,0,0,0,0,0,0,0,0],"sum_hessian":[1.148318E6,8.88015E5,2.60303E5,3.81949E5,5.06066E5,1.10663E5,1.4964E5,2.84727E5,9.7222E4,4.34652E5,7.1414E4,5.1864E4,5.8799E4,1.7704E4,1.31936E5,1.16279E5,1.68448E5,8.233E4,1.4892E4,8.8851E4,3.45801E5,2.3408E4,4.8006E4,3.8359E4,1.3505E4,3.2014E4,2.6785E4,9.796E3,7.908E3,9.1485E4,4.0451E4,9.4907E4,2.1372E4,3.8826E4,1.29622E5,4.1213E4,4.1117E4,9.836E3,5.056E3,1.8504E4,7.0347E4,2.155E5,1.30301E5,1.4666E4,8.742E3,1.4168E4,3.3838E4,2.4039E4,1.432E4,2.613E3,1.0892E4,2.1995E4,1.0019E4,6.402E3,2.0383E4,3.703E3,6.093E3,5.175E3,2.733E3,7.7178E4,1.4307E4,1.0496E4,2.9955E4],"tree_param":{"num_deleted":"0","num_feature":"13","num_nodes":"63","size_leaf_vector":"1"}},{"base_weights":[-3.6410524E-6,-2.6910951E-2,1.1954408E-1,2.1217188E-2,-5.0813836E-1,8.7941974E-1,7.2072774E-2,9.852372E-2,-1.080954E-1,-8.8842636E-1,4.6706465E-1,1.5442116E0,-6.983898E-1,-8.9397854E-1,1.4104776E-1,1.7811032E-1,-2.2949119E-1,-2.1032903E-1,6.7414516E-1,-2.0654231E-1,-7.2735047E0,1.3398118E0,-6.2467325E-1,8.379033E0,1.4664273E0,-2.4656441E0,1.4025456E0,-1.7993684E0,2.084853E0,2.9460272E-1,-1.7136426E-1,6.911559E-2,-1.3180894E-1,3.421438E-2,-2.7133915E-1,4.7091603E-2,-1.05812036E-1,-4.1233954E-1,2.425027E-1,-2.313333E-1,1.8172464E-1,-3.456627E0,-4.606603E-1,5.7793166E-2,6.726107E-1,-3.2501405E-1,2.1733677E-1,2.7169502E0,8.3074194E-1,-8.472226E-1,4.6806636E-1,-1.082411E0,-3.3286732E-1,9.236372E-2,1.0556238E0,-3.5651535E-1,-9.275642E-1,-7.6943316E-2,1.0732576E0,1.4252175E-1,-1.4178365E-1,1.6459394E-1,-1.0306127E-1],"categories":[],"categories_nodes":[],"categories_segments":[],"categories_sizes":[],"default_left":[0,0,0,0,0,0,0,0,0,0,0,0,0,0,0,0,0,0,0,0,0,0,0,0,0,0,0,0,0,0,0,0,0,0,0,0,0,0,0,0,0,0,0,0,0,0,0,0,0,0,0,0,0,0,0,0,0,0,0,0,0,0,0],"id":23,"left_children":[1,3,5,7,9,11,13,15,17,19,21,23,25,27,29,31,33,35,37,39,41,43,45,47,49,51,53,55,57,59,61,-1,-1,-1,-1,-1,-1,-1,-1,-1,-1,-1,-1,-1,-1,-1,-1,-1,-1,-1,-1,-1,-1,-1,-1,-1,-1,-1,-1,-1,-1,-1,-1],"loss_changes":[3.6938096E3,2.1709488E4,7.610251E3,8.518454E3,3.1605676E4,1.301287E4,1.3231515E4,1.392223E4,2.5496832E4,2.6694812E5,2.2782553E4,4.627885E3,1.3659456E4,3.5693203E4,8.891162E3,1.3853119E4,2.4145945E4,1.4745918E4,1.0132377E4,2.5405662E4,1.4420403E5,1.3752678E4,6.5748784E3,3.4737256E2,3.4777168E3,3.0912646E3,3.8930098E3,8.0110312E3,1.0782496E4,1.720543E4,7.571699E3,0E0,0E0,0E0,0E0,0E0,0E0,0E0,0E0,0E0,0E0,0E0,0E0,0E0,0E0,0E0,0E0,0E0,0E0,0E0,0E0,0E0,0E0,0E0,0E0,0E0,0E0,0E0,0E0,0E0,0E0,0E0,0E0],"parents":[2147483647,0,0,1,1,2,2,3,3,4,4,5,5,6,6,7,7,8,8,9,9,10,10,11,11,12,12,13,13,14,14,15,15,16,16,17,17,18,18,19,19,20,20,21,21,22,22,23,23,24,24,25,25,26,26,27,27,28,28,29,29,30,30],"right_children":[2,4,6,8,10,12,14,16,18,20,22,24,26,28,30,32,34,36,38,40,42,44,46,48,50,52,54,56,58,60,62,-1,-1,-1,-1,-1,-1,-1,-1,-1,-1,-1,-1,-1,-1,-1,-1,-1,-1,-1,-1,-1,-1,-1,-1,-1,-1,-1,-1,-1,-1,-1,-1],"split_conditions":[1.1394293E2,8.716195E1,-7.946272E1,5E-1,3.9401253E1,1.6030273E2,-6.816155E1,3.5129234E1,5.6209454E1,2.6763792E1,2.47E2,-9.994446E-1,-8.435555E1,1.6447078E2,7.306445E-1,7.595796E1,2.9598936E1,-1.1390426E2,-7.874841E1,-2.1084171E1,1.02680374E2,7.2E1,7.735921E1,1.5323291E2,-6.6045654E-1,4.373401E-1,2.73E2,7.422809E-1,-4.6706492E-1,5.9798954E1,1.26650635E2,6.911559E-2,-1.3180894E-1,3.421438E-2,-2.7133915E-1,4.7091603E-2,-1.05812036E-1,-4.1233954E-1,2.425027E-1,-2.313333E-1,1.8172464E-1,-3.456627E0,-4.606603E-1,5.7793166E-2,6.726107E-1,-3.2501405E-1,2.1733677E-1,2.7169502E0,8.3074194E-1,-8.472226E-1,4.6806636E-1,-1.082411E0,-3.3286732E-1,9.236372E-2,1.0556238E0,-3.5651535E-1,-9.275642E-1,-7.6943316E-2,1.0732576E0,1.4252175E-1,-1.4178365E-1,1.6459394E-1,-1.0306127E-1],"split_indices":[1,1,0,11,0,1,0,1,1,0,7,9,0,1,9,0,0,1,0,0,1,7,0,1,10,10,7,9,9,0,1,0,0,0,0,0,0,0,0,0,0,0,0,0,0,0,0,0,0,0,0,0,0,0,0,0,0,0,0,0,0,0,0],"split_type":[0,0,0,0,0,0,0,0,0,0,0,0,0,0,0,0,0,0,0,0,0,0,0,0,0,0,0,0,0,0,0,0,0,0,0,0,0,0,0,0,0,0,0,0,0,0,0,0,0,0,0,0,0,0,0,0,0,0,0,0,0,0,0],"sum_hessian":[1.148318E6,9.37345E5,2.10973E5,8.52124E5,8.5221E4,1.2404E4,1.98569E5,5.33302E5,3.18822E5,6.1312E4,2.3909E4,8.727E3,3.677E3,1.3232E4,1.85337E5,4.29172E5,1.0413E5,2.81971E5,3.6851E4,5.5397E4,5.915E3,1.3287E4,1.0622E4,9.7E1,8.63E3,1.997E3,1.68E3,1.0148E4,3.084E3,1.24261E5,6.1076E4,3.95675E5,3.3497E4,6.9008E4,3.5122E4,7.8768E4,2.03203E5,2.265E3,3.4586E4,3.2682E4,2.2715E4,3.398E3,2.517E3,5.85E3,7.437E3,7.927E3,2.695E3,8.6E1,1.1E1,1.84E2,8.446E3,1.083E3,9.14E2,1.108E3,5.72E2,6.892E3,3.256E3,1.201E3,1.883E3,1.00598E5,2.3663E4,1.1786E4,4.929E4],"tree_param":{"num_deleted":"0","num_feature":"13","num_nodes":"63","size_leaf_vector":"1"}},{"base_weights":[-3.3734839E-6,-4.878121E-2,1.0342436E-1,-2.8742503E-2,-1.1907858E0,8.269752E-1,4.2169914E-2,-9.708892E-2,6.7834996E-2,4.9572647E-1,-2.099083E0,1.0613731E0,-1.4999319E0,2.0816661E-1,-2.2546287E-1,-3.3740304E-2,-6.0172564E-1,-1.7413847E-1,3.2990494E-1,-7.769338E-2,2.9886613E0,-1.2353113E0,-4.2314687E0,6.3583714E-1,2.1082842E0,-2.8094108E0,8.1050254E-2,1.5043027E0,4.8660513E-2,-6.206725E-1,6.1911315E-1,1.7441455E-2,-9.782116E-2,1.8877132E-1,-3.693298E-1,2.484825E-1,-7.804787E-2,1.72086E-1,-1.2772427E-1,3.281385E-1,-2.5372224E0,1.0220374E0,4.9840474E-1,-4.3408132E-1,2.0085719E0,-4.3535466E0,-2.869576E-1,3.9212546E-1,8.382146E-3,3.6345407E-1,9.0364075E-1,1.05899796E-1,-1.1585763E0,3.9087698E-1,-2.7376235E-1,1.0198813E-1,7.604123E-1,-7.871914E-2,1.9895996E-1,-3.175419E-1,3.278631E-1,5.999152E-1,1.0132686E-1],"categories":[],"categories_nodes":[],"categories_segments":[],"categories_sizes":[],"default_left":[0,0,0,0,0,0,0,0,0,0,0,0,0,0,0,0,0,0,0,0,0,0,0,0,0,0,0,0,0,0,0,0,0,0,0,0,0,0,0,0,0,0,0,0,0,0,0,0,0,0,0,0,0,0,0,0,0,0,0,0,0,0,0],"id":24,"left_children":[1,3,5,7,9,11,13,15,17,19,21,23,25,27,29,31,33,35,37,39,41,43,45,47,49,51,53,55,57,59,61,-1,-1,-1,-1,-1,-1,-1,-1,-1,-1,-1,-1,-1,-1,-1,-1,-1,-1,-1,-1,-1,-1,-1,-1,-1,-1,-1,-1,-1,-1,-1,-1],"loss_changes":[5.793253E3,1.7856902E4,1.6310252E4,5.0618325E3,2.0613672E4,1.5667748E4,1.5073131E4,1.4355673E4,2.0152764E4,6.7345986E3,1.6103984E4,1.16239375E4,5.442949E3,4.3292445E4,4.3352664E4,1.0716166E4,3.8803418E4,1.4248125E4,2.8096832E4,3.761717E4,4.8328467E2,1.0458868E4,8.486207E4,7.571317E3,6.1086875E3,4.7877E3,1.4483275E3,2.7528465E4,3.5643145E4,6.637745E4,1.6082015E4,0E0,0E0,0E0,0E0,0E0,0E0,0E0,0E0,0E0,0E0,0E0,0E0,0E0,0E0,0E0,0E0,0E0,0E0,0E0,0E0,0E0,0E0,0E0,0E0,0E0,0E0,0E0,0E0,0E0,0E0,0E0,0E0],"parents":[2147483647,0,0,1,1,2,2,3,3,4,4,5,5,6,6,7,7,8,8,9,9,10,10,11,11,12,12,13,13,14,14,15,15,16,16,17,17,18,18,19,19,20,20,21,21,22,22,23,23,24,24,25,25,26,26,27,27,28,28,29,29,30,30],"right_children":[2,4,6,8,10,12,14,16,18,20,22,24,26,28,30,32,34,36,38,40,42,44,46,48,50,52,54,56,58,60,62,-1,-1,-1,-1,-1,-1,-1,-1,-1,-1,-1,-1,-1,-1,-1,-1,-1,-1,-1,-1,-1,-1,-1,-1,-1,-1,-1,-1,-1,-1,-1,-1],"split_conditions":[3.238796E1,3.028382E1,-5.619233E-1,3.0912243E1,-6.644835E-1,1.4629666E2,4.2080414E1,1.6943779E1,-2.7397404E1,1.1114013E2,7.72711E1,5.196024E1,6.334378E1,3.8693893E1,7.172365E1,-1.9714268E1,-7.0214796E-1,-8.507051E1,1.4353073E2,7.72711E1,1.631066E2,7.02268E1,1.0409039E2,-7.044783E1,1.2246469E-16,4.00868E1,2.28E2,-7.735671E1,-3.2363693E1,1.5187349E2,4.8E1,1.7441455E-2,-9.782116E-2,1.8877132E-1,-3.693298E-1,2.484825E-1,-7.804787E-2,1.72086E-1,-1.2772427E-1,3.281385E-1,-2.5372224E0,1.0220374E0,4.9840474E-1,-4.3408132E-1,2.0085719E0,-4.3535466E0,-2.869576E-1,3.9212546E-1,8.382146E-3,3.6345407E-1,9.0364075E-1,1.05899796E-1,-1.1585763E0,3.9087698E-1,-2.7376235E-1,1.0198813E-1,7.604123E-1,-7.871914E-2,1.9895996E-1,-3.175419E-1,3.278631E-1,5.999152E-1,1.0132686E-1],"split_indices":[0,0,10,1,9,1,1,0,0,1,1,1,0,0,0,1,9,0,1,1,1,1,1,1,11,0,7,1,1,1,7,0,0,0,0,0,0,0,0,0,0,0,0,0,0,0,0,0,0,0,0,0,0,0,0,0,0,0,0,0,0,0,0],"split_type":[0,0,0,0,0,0,0,0,0,0,0,0,0,0,0,0,0,0,0,0,0,0,0,0,0,0,0,0,0,0,0,0,0,0,0,0,0,0,0,0,0,0,0,0,0,0,0,0,0,0,0,0,0,0,0,0,0,0,0,0,0,0,0],"sum_hessian":[1.148318E6,7.80313E5,3.68005E5,7.66858E5,1.3455E4,2.8722E4,3.39283E5,4.49063E5,3.17795E5,4.71E3,8.745E3,2.6094E4,2.628E3,2.09403E5,1.2988E5,3.98979E5,5.0084E4,1.65233E5,1.52562E5,3.83E3,8.8E2,6.225E3,2.52E3,1.8554E4,7.54E3,1.437E3,1.191E3,2.2945E4,1.86458E5,8.8478E4,4.1402E4,3.03569E5,9.541E4,1.6944E4,3.314E4,1.3058E4,1.52175E5,1.15357E5,3.7205E4,3.361E3,4.69E2,6.68E2,2.12E2,6.064E3,1.61E2,6.08E2,1.912E3,8.817E3,9.737E3,3.786E3,3.754E3,3.59E2,1.078E3,5.34E2,6.57E2,1.0773E4,1.2172E4,1.23797E5,6.2661E4,7.0473E4,1.8005E4,7.008E3,3.4394E4],"tree_param":{"num_deleted":"0","num_feature":"13","num_nodes":"63","size_leaf_vector":"1"}},{"base_weights":[-3.5455123E-6,-2.8875018E-2,9.8490246E-2,-6.797461E-2,1.4058954E-1,9.308898E-1,3.6576252E-2,5.9088976E-3,-5.632766E-1,2.417804E-2,6.3303167E-1,-2.4279209E-2,1.4687492E0,-1.9341321E-1,2.0948881E-1,-2.3937909E-2,5.1507115E-1,-5.954428E-2,-3.2974489E0,1.8453676E-1,-3.6174077E-1,1.868139E0,-3.2849386E-1,1.1048505E0,-2.489534E0,3.9091372E0,8.693681E-1,1.7415611E-2,-1.4367939E0,3.943618E-1,-2.8085393E-1,-2.4516355E-2,8.967593E-2,-6.6559744E-1,2.2484241E-1,-1.5129787E-1,1.7917004E-1,-2.1333504E0,-3.9536178E-2,-9.295148E-2,1.258522E-1,-1.8726806E-1,-1.9449696E-2,7.882877E-1,1.6918738E-1,1.7213909E-2,-2.7613547E-1,5.694921E-1,-1.7550465E-2,1.698856E-1,-1.3771212E0,3.109159E-1,1.7935942E0,1.2739271E-1,8.2273084E-1,-2.7518883E-1,9.3765765E-2,9.304603E-1,-1.314729E0,2.0086461E-1,-1.4057598E-1,-2.5181273E-1,9.6427366E-2],"categories":[],"categories_nodes":[],"categories_segments":[],"categories_sizes":[],"default_left":[0,0,0,0,0,0,0,0,0,0,0,0,0,0,0,0,0,0,0,0,0,0,0,0,0,0,0,0,0,0,0,0,0,0,0,0,0,0,0,0,0,0,0,0,0,0,0,0,0,0,0,0,0,0,0,0,0,0,0,0,0,0,0],"id":25,"left_children":[1,3,5,7,9,11,13,15,17,19,21,23,25,27,29,31,33,35,37,39,41,43,45,47,49,51,53,55,57,59,61,-1,-1,-1,-1,-1,-1,-1,-1,-1,-1,-1,-1,-1,-1,-1,-1,-1,-1,-1,-1,-1,-1,-1,-1,-1,-1,-1,-1,-1,-1,-1,-1],"loss_changes":[3.2654326E3,5.8839995E3,1.3415299E4,2.6404504E4,9.543433E3,9.258265E3,9.635207E3,9.541836E3,1.2899688E5,8.332818E3,3.7801516E4,1.8076617E4,1.6860332E4,2.7257654E4,1.2537525E4,1.1065024E4,2.2280852E4,2.3104299E4,1.7591392E5,1.1049957E4,3.0803926E3,1.3799262E4,4.088329E3,4.111461E3,1.3099153E4,1.3507215E4,7.709931E3,2.4526879E4,2.0154014E5,2.3851297E4,1.273852E4,0E0,0E0,0E0,0E0,0E0,0E0,0E0,0E0,0E0,0E0,0E0,0E0,0E0,0E0,0E0,0E0,0E0,0E0,0E0,